%YAML:1.0
---
opencv_ml_svm:
   format: 3
   svmType: C_SVC
   kernel:
      type: RBF
      gamma: 100.
   C: 1.2500000000000000e+00
   term_criteria: { epsilon:1.1920928955078125e-07, iterations:1000 }
   var_count: 103
   class_count: 2
   class_labels: !!opencv-matrix
      rows: 2
      cols: 1
      dt: i
      data: [ 0, 1 ]
   sv_total: 192
   support_vectors:
      - [ 391., 491., 751., 402., 671., 687., 362., 428., 973., 523.,
          512., 503., 760., 289., 781., 435., 664., 747., 402., 750.,
          465., 640., 490., 635., 383., 712., 713., 381., 663., 475.,
          727., 416., 716., 603., 502., 669., 428., 685., 377., 729.,
          244., 665., 758., 435., 488., 637., 715., 0., 762., 803., 0.,
          1088., 0., 1214., 0., 1335., 0., 0., 1570., 0., 1453., 0., 0.,
          0., 1639., 0., 1594., 0., 0., 1582., 0., 0., 1757., 0., 0.,
          1878., 0., 0., 0., 1987., 0., 0., 1998., 0., 0., 0., 2087., 0.,
          0., 2027., 0., 0., 0., 2151., 0., 0., 1552., 817., 662., 371.,
          58., 259., 4.46551704e+00 ]
      - [ 417., 657., 437., 625., 607., 536., 458., 849., 651., 348.,
          638., 607., 636., 363., 572., 587., 766., 502., 548., 717.,
          468., 503., 519., 647., 473., 746., 502., 463., 671., 624.,
          548., 563., 592., 599., 601., 681., 438., 706., 372., 699.,
          400., 772., 608., 491., 649., 333., 701., 519., 591., 324.,
          684., 480., 468., 938., 483., 463., 471., 503., 578., 625.,
          639., 705., 787., 0., 964., 0., 1011., 0., 1044., 0., 1124.,
          0., 1168., 0., 1206., 0., 1365., 0., 0., 1540., 0., 0., 1550.,
          0., 1475., 0., 0., 1554., 0., 1364., 0., 1239., 0., 1027., 0.,
          875., 763., 532., 894., 357., 70., 286., 4.08571434e+00 ]
      - [ 482., 544., 350., 820., 351., 664., 552., 608., 765., 361.,
          741., 324., 822., 561., 659., 394., 659., 706., 433., 704.,
          468., 666., 466., 639., 498., 673., 646., 468., 609., 468.,
          653., 275., 652., 708., 404., 814., 453., 482., 541., 532.,
          563., 560., 568., 592., 706., 0., 759., 768., 848., 0., 993.,
          0., 1081., 0., 1238., 0., 1340., 0., 1351., 0., 0., 1491., 0.,
          0., 1561., 0., 0., 1646., 0., 0., 1977., 0., 0., 0., 1961., 0.,
          0., 2055., 0., 0., 0., 1930., 0., 0., 2034., 0., 0., 0., 1969.,
          0., 0., 1645., 0., 1376., 0., 1181., 0., 954., 777., 661., 54.,
          272., 5.03703690e+00 ]
      - [ 442., 563., 603., 596., 586., 560., 510., 607., 595., 572.,
          756., 275., 705., 440., 773., 480., 650., 658., 453., 690.,
          479., 627., 371., 754., 341., 722., 675., 457., 735., 455.,
          690., 455., 604., 732., 452., 633., 442., 696., 395., 706.,
          417., 689., 705., 224., 925., 395., 463., 441., 847., 0., 613.,
          693., 996., 0., 0., 1389., 0., 0., 1642., 0., 0., 2031., 0.,
          0., 0., 0., 2455., 0., 0., 0., 2805., 0., 0., 0., 0., 2853.,
          0., 0., 0., 0., 2969., 0., 0., 0., 0., 2715., 0., 0., 0.,
          2202., 0., 0., 0., 2212., 0., 1447., 0., 861., 898., 378., 49.,
          219., 4.46938753e+00 ]
      - [ 526., 682., 437., 431., 598., 608., 541., 734., 714., 400.,
          664., 468., 550., 557., 636., 446., 618., 680., 443., 703.,
          497., 522., 520., 746., 453., 696., 656., 474., 681., 430.,
          629., 395., 799., 583., 522., 656., 396., 585., 554., 729.,
          375., 778., 617., 392., 778., 437., 480., 459., 761., 500.,
          540., 691., 360., 755., 416., 427., 501., 523., 1084., 528.,
          642., 0., 723., 732., 711., 0., 841., 910., 0., 939., 0.,
          1046., 0., 1207., 0., 1395., 0., 1230., 0., 0., 1170., 0.,
          1129., 1097., 0., 979., 0., 963., 883., 0., 915., 741., 746.,
          0., 1238., 0., 899., 594., 683., 426., 26., 95.,
          3.65384626e+00 ]
      - [ 560., 662., 440., 660., 472., 592., 499., 702., 623., 418.,
          766., 328., 681., 482., 682., 379., 581., 699., 529., 572.,
          506., 731., 529., 532., 487., 774., 528., 534., 510., 642.,
          632., 330., 716., 684., 325., 707., 405., 791., 371., 731.,
          402., 848., 535., 563., 695., 0., 742., 850., 0., 886., 0.,
          1013., 1044., 0., 1122., 0., 0., 1218., 1264., 0., 0., 1327.,
          0., 1335., 0., 0., 1191., 1167., 0., 1095., 0., 993., 0., 998.,
          0., 917., 877., 0., 893., 798., 775., 0., 727., 1241., 0.,
          946., 444., 808., 371., 745., 316., 817., 678., 353., 734.,
          426., 768., 347., 750., 389., 21., 88., 4.19047642e+00 ]
      - [ 529., 601., 549., 430., 688., 653., 0., 663., 602., 776., 792.,
          509., 692., 443., 672., 438., 677., 647., 501., 631., 403.,
          685., 535., 511., 519., 703., 711., 333., 685., 511., 729.,
          414., 579., 804., 367., 733., 319., 795., 400., 604., 430.,
          620., 868., 267., 753., 470., 761., 293., 663., 326., 762.,
          858., 477., 485., 560., 604., 0., 1252., 0., 748., 761., 0.,
          857., 993., 0., 1113., 0., 1074., 0., 1053., 0., 1210., 0.,
          1208., 0., 1075., 0., 1142., 0., 1167., 0., 1209., 0., 1372.,
          0., 0., 0., 1686., 0., 1509., 0., 0., 1392., 873., 588., 499.,
          784., 549., 715., 341., 35., 124., 3.54285717e+00 ]
      - [ 531., 676., 412., 547., 460., 803., 251., 811., 534., 518.,
          739., 502., 668., 413., 585., 435., 842., 581., 372., 796.,
          492., 657., 223., 625., 730., 697., 676., 299., 644., 318.,
          684., 688., 684., 691., 417., 372., 767., 384., 403., 841.,
          510., 503., 554., 610., 681., 0., 797., 0., 1088., 0., 1230.,
          0., 0., 1735., 0., 0., 2103., 0., 0., 0., 0., 2563., 0., 0.,
          0., 0., 3121., 0., 0., 0., 0., 0., 0., 3631., 0., 0., 0., 0.,
          0., 0., 4103., 0., 0., 0., 0., 0., 0., 4105., 0., 0., 0.,
          2700., 0., 0., 1778., 0., 1063., 0., 1059., 498., 20., 102.,
          5.09999990e+00 ]
      - [ 557., 618., 324., 633., 471., 758., 554., 536., 722., 385.,
          805., 236., 860., 394., 767., 460., 555., 775., 431., 604.,
          428., 683., 507., 672., 344., 808., 573., 521., 600., 555.,
          610., 502., 607., 696., 470., 634., 502., 686., 327., 663.,
          581., 590., 760., 351., 774., 421., 559., 422., 650., 490.,
          722., 774., 356., 697., 445., 499., 465., 547., 584., 686.,
          780., 0., 976., 0., 1050., 0., 1198., 0., 0., 1525., 0., 0.,
          1749., 0., 0., 1689., 0., 0., 1627., 0., 1451., 0., 0., 1448.,
          0., 1195., 0., 1083., 924., 745., 0., 1175., 466., 432., 751.,
          335., 776., 571., 686., 362., 24., 105., 4.37500000e+00 ]
      - [ 424., 405., 498., 994., 459., 685., 388., 651., 591., 445.,
          782., 262., 732., 456., 709., 529., 527., 714., 470., 611.,
          621., 575., 554., 696., 343., 687., 693., 497., 629., 466.,
          713., 382., 729., 611., 379., 727., 399., 816., 362., 644.,
          432., 644., 692., 468., 652., 507., 681., 531., 580., 559.,
          625., 360., 489., 583., 687., 843., 0., 1029., 0., 0., 1307.,
          0., 1462., 0., 0., 0., 1901., 0., 0., 2030., 0., 0., 0., 2417.,
          0., 0., 0., 0., 2517., 0., 0., 2006., 0., 1439., 0., 0., 1278.,
          0., 1082., 1030., 0., 952., 778., 0., 1174., 465., 466., 623.,
          602., 454., 28., 119., 4.25000000e+00 ]
      - [ 487., 691., 392., 454., 438., 706., 383., 848., 825., 364.,
          649., 531., 505., 657., 660., 300., 645., 686., 572., 549.,
          488., 807., 282., 820., 250., 887., 709., 426., 654., 431.,
          685., 425., 594., 810., 456., 579., 471., 704., 438., 721.,
          394., 676., 729., 295., 702., 452., 529., 655., 423., 513.,
          591., 706., 0., 831., 931., 0., 1039., 0., 1150., 0., 1113.,
          0., 1128., 0., 1115., 0., 1045., 973., 0., 1062., 0., 1274.,
          0., 0., 1456., 0., 1309., 0., 1265., 0., 0., 1221., 990., 0.,
          999., 0., 988., 1024., 0., 987., 0., 1074., 0., 1213., 643.,
          416., 793., 499., 679., 339., 82., 334., 4.07317066e+00 ]
      - [ 459., 634., 530., 580., 589., 452., 468., 461., 1069., 0.,
          1054., 459., 713., 481., 648., 435., 657., 703., 457., 692.,
          413., 678., 443., 681., 385., 758., 661., 389., 620., 375.,
          790., 367., 439., 533., 631., 818., 0., 933., 0., 1093., 0.,
          1329., 0., 0., 1388., 0., 1437., 0., 0., 1526., 0., 1655., 0.,
          0., 1527., 0., 0., 1378., 0., 1276., 0., 1489., 0., 0., 1783.,
          0., 0., 0., 1957., 0., 0., 1923., 0., 0., 1737., 0., 0., 1578.,
          0., 0., 1400., 0., 1363., 0., 1426., 0., 0., 1408., 0., 1350.,
          0., 0., 1517., 0., 0., 1648., 865., 569., 723., 400., 61.,
          318., 5.21311474e+00 ]
      - [ 495., 630., 462., 385., 415., 1077., 0., 682., 709., 552.,
          946., 430., 375., 701., 559., 576., 539., 718., 555., 680.,
          369., 639., 534., 700., 371., 721., 591., 560., 597., 382.,
          822., 457., 695., 607., 502., 711., 411., 707., 292., 816.,
          457., 451., 879., 284., 537., 381., 865., 478., 611., 0., 720.,
          829., 0., 939., 0., 1167., 0., 1193., 0., 1294., 0., 1199., 0.,
          1258., 0., 0., 1449., 0., 1522., 0., 0., 1491., 0., 1437., 0.,
          0., 1398., 0., 1462., 0., 1234., 0., 1025., 0., 1062., 0.,
          1143., 0., 1259., 0., 0., 1193., 975., 589., 787., 329., 770.,
          522., 674., 367., 63., 231., 3.66666675e+00 ]
      - [ 412., 707., 278., 700., 475., 711., 0., 973., 0., 1450., 0.,
          0., 0., 0., 2269., 0., 0., 0., 2596., 0., 0., 0., 2245., 0.,
          0., 0., 2331., 0., 1338., 0., 1042., 660., 464., 919., 439.,
          608., 481., 625., 461., 797., 432., 687., 620., 370., 619.,
          434., 738., 523., 643., 290., 701., 696., 620., 674., 329.,
          736., 490., 615., 707., 342., 749., 370., 440., 657., 672.,
          644., 642., 0., 778., 945., 0., 0., 1252., 0., 1171., 971., 0.,
          934., 0., 1001., 0., 1330., 0., 1484., 0., 0., 0., 1696., 0.,
          1215., 0., 993., 1244., 474., 405., 661., 677., 519., 685.,
          344., 78., 60., 7.69230783e-01 ]
      - [ 338., 0., 1218., 0., 0., 0., 0., 0., 3229., 0., 0., 0., 0., 0.,
          3746., 0., 0., 0., 0., 2494., 0., 1578., 0., 0., 1370., 0.,
          1612., 0., 0., 0., 1704., 0., 1335., 0., 1042., 934., 0., 879.,
          820., 0., 720., 611., 630., 562., 946., 432., 775., 328., 610.,
          579., 655., 704., 259., 747., 492., 560., 626., 658., 556.,
          541., 469., 741., 664., 451., 665., 491., 484., 867., 0.,
          1082., 0., 689., 681., 611., 647., 622., 531., 471., 893.,
          343., 847., 434., 397., 697., 696., 678., 405., 672., 424.,
          706., 490., 602., 726., 424., 718., 461., 644., 469., 668.,
          350., 51., 51., 1. ]
      - [ 488., 278., 513., 773., 0., 1089., 0., 1141., 0., 1123., 0.,
          1086., 894., 0., 1100., 549., 647., 697., 458., 693., 469.,
          638., 476., 665., 437., 699., 660., 444., 676., 453., 438., 0.,
          920., 0., 1126., 0., 0., 1674., 0., 0., 1941., 0., 0., 1901.,
          0., 0., 1607., 0., 0., 0., 2361., 0., 0., 0., 0., 2602., 0.,
          0., 0., 2531., 0., 0., 0., 0., 0., 0., 3750., 0., 0., 0., 0.,
          0., 0., 0., 4529., 0., 0., 0., 0., 0., 0., 4406., 0., 0., 0.,
          0., 0., 0., 3982., 0., 0., 0., 2554., 0., 0., 1418., 0., 1302.,
          608., 404., 47., 40., 8.51063848e-01 ]
      - [ 249., 908., 0., 1096., 0., 1172., 0., 0., 1383., 0., 1456., 0.,
          0., 1461., 0., 0., 1471., 0., 1640., 0., 0., 1778., 0., 0., 0.,
          1806., 0., 0., 1822., 0., 0., 1624., 0., 1570., 0., 0., 1535.,
          0., 0., 1422., 0., 1151., 1095., 0., 998., 0., 955., 806., 0.,
          896., 819., 0., 864., 920., 0., 836., 831., 0., 761., 761.,
          805., 0., 743., 723., 736., 704., 623., 629., 0., 1191., 0.,
          1142., 0., 598., 593., 576., 1049., 495., 479., 440., 741.,
          604., 564., 735., 376., 692., 449., 683., 556., 691., 371.,
          749., 640., 446., 668., 462., 685., 451., 678., 347., 44., 81.,
          1.84090912e+00 ]
      - [ 457., 0., 1107., 0., 0., 0., 1988., 0., 0., 0., 0., 0., 3837.,
          0., 0., 0., 0., 0., 0., 0., 0., 0., 0., 6174., 0., 0., 0., 0.,
          0., 0., 0., 0., 0., 0., 6386., 0., 0., 0., 0., 0., 0., 0., 0.,
          5104., 0., 0., 0., 0., 0., 0., 3768., 0., 0., 2223., 0., 0.,
          0., 1823., 0., 1467., 0., 0., 1319., 928., 595., 477., 491.,
          774., 354., 685., 752., 653., 297., 683., 362., 712., 714.,
          317., 691., 413., 738., 657., 585., 713., 464., 571., 547.,
          714., 369., 729., 508., 634., 667., 433., 718., 404., 721.,
          458., 681., 338., 32., 68., 2.12500000e+00 ]
      - [ 389., 676., 0., 712., 950., 0., 1047., 0., 1215., 0., 1073.,
          0., 1010., 850., 619., 441., 626., 708., 503., 696., 435.,
          693., 481., 642., 473., 655., 665., 480., 639., 475., 580.,
          406., 682., 480., 626., 0., 828., 1053., 0., 0., 1479., 0., 0.,
          0., 2268., 0., 0., 0., 0., 0., 3310., 0., 0., 0., 0., 0., 0.,
          3886., 0., 0., 0., 0., 3436., 0., 0., 0., 0., 0., 0., 3520.,
          0., 0., 0., 0., 0., 0., 4140., 0., 0., 0., 0., 0., 3691., 0.,
          0., 0., 0., 0., 3160., 0., 0., 0., 2787., 0., 0., 0., 2103.,
          0., 1157., 455., 48., 43., 8.95833313e-01 ]
      - [ 372., 561., 535., 735., 0., 907., 0., 1079., 0., 1217., 0.,
          1045., 818., 483., 872., 468., 641., 669., 461., 682., 415.,
          708., 422., 686., 395., 729., 554., 447., 799., 0., 690., 836.,
          0., 1128., 0., 0., 1804., 0., 0., 0., 0., 2396., 0., 0., 0.,
          2561., 0., 0., 0., 0., 0., 3330., 0., 0., 0., 0., 3135., 0.,
          0., 0., 0., 2727., 0., 0., 0., 0., 0., 3347., 0., 0., 0., 0.,
          0., 0., 4109., 0., 0., 0., 0., 0., 3775., 0., 0., 0., 0.,
          2775., 0., 0., 0., 2142., 0., 0., 0., 0., 2544., 0., 0., 2001.,
          705., 495., 47., 44., 9.36170220e-01 ]
      - [ 532., 663., 420., 687., 460., 618., 530., 615., 647., 440.,
          600., 500., 653., 510., 737., 268., 833., 621., 310., 905.,
          336., 551., 572., 525., 539., 779., 574., 339., 624., 622.,
          581., 591., 594., 770., 441., 520., 670., 549., 515., 634.,
          500., 676., 676., 381., 718., 437., 509., 644., 359., 485.,
          575., 727., 764., 0., 762., 748., 650., 743., 0., 951., 0.,
          1141., 0., 0., 0., 2280., 0., 0., 0., 2370., 0., 0., 0., 2383.,
          0., 0., 1324., 1008., 0., 973., 0., 1298., 0., 0., 1570., 0.,
          0., 1815., 0., 1150., 0., 1094., 648., 485., 814., 336., 834.,
          453., 667., 377., 60., 133., 2.21666670e+00 ]
      - [ 506., 613., 522., 648., 476., 564., 286., 856., 503., 518.,
          568., 499., 857., 460., 439., 418., 882., 768., 431., 470.,
          645., 0., 763., 963., 0., 875., 837., 0., 746., 851., 664., 0.,
          701., 697., 621., 573., 654., 769., 0., 791., 854., 0., 845.,
          759., 742., 651., 564., 591., 617., 0., 718., 752., 764., 770.,
          0., 594., 563., 537., 1130., 435., 766., 315., 675., 580.,
          476., 550., 638., 597., 497., 794., 283., 862., 470., 581.,
          422., 787., 573., 472., 654., 464., 526., 572., 789., 604.,
          386., 601., 426., 634., 573., 809., 346., 759., 629., 453.,
          601., 381., 803., 491., 687., 354., 18., 82., 4.55555534e+00 ]
      - [ 434., 750., 466., 476., 666., 0., 804., 0., 1627., 0., 0., 0.,
          2061., 0., 0., 0., 1930., 0., 1630., 0., 1129., 0., 887., 698.,
          585., 712., 478., 350., 687., 513., 603., 0., 893., 972., 0.,
          849., 0., 1014., 891., 775., 0., 846., 1060., 0., 0., 1437.,
          0., 0., 1620., 0., 0., 1862., 0., 0., 0., 2212., 0., 0., 0.,
          2416., 0., 0., 1813., 0., 0., 0., 1708., 1168., 0., 747., 604.,
          916., 393., 807., 437., 385., 823., 401., 652., 581., 777.,
          249., 857., 635., 339., 759., 474., 696., 320., 759., 424.,
          754., 681., 373., 705., 493., 602., 513., 661., 361., 16.,
          148., 9.25000000e+00 ]
      - [ 496., 0., 934., 0., 0., 1827., 0., 0., 0., 0., 2499., 0., 0.,
          0., 2301., 0., 0., 2194., 0., 0., 0., 2275., 0., 0., 0., 0.,
          2750., 0., 0., 0., 0., 2689., 0., 0., 0., 0., 2889., 0., 0.,
          0., 0., 2832., 0., 0., 0., 2414., 0., 0., 1427., 878., 611.,
          885., 356., 536., 342., 989., 0., 677., 707., 723., 742., 0.,
          659., 690., 849., 0., 1110., 0., 1264., 0., 0., 1437., 0., 0.,
          1606., 0., 0., 1765., 0., 1367., 0., 928., 671., 1015., 289.,
          706., 471., 663., 527., 615., 538., 587., 739., 436., 650.,
          478., 672., 467., 660., 368., 29., 164., 5.65517235e+00 ]
      - [ 464., 389., 654., 837., 380., 751., 370., 523., 601., 0., 897.,
          0., 1150., 0., 1448., 0., 0., 1477., 0., 0., 1988., 0., 0., 0.,
          0., 2360., 0., 0., 0., 0., 3034., 0., 0., 0., 0., 3279., 0.,
          0., 0., 0., 0., 3415., 0., 0., 0., 0., 0., 0., 0., 4549., 0.,
          0., 0., 0., 0., 0., 0., 4183., 0., 0., 0., 0., 3024., 0., 0.,
          0., 2133., 0., 1447., 0., 1052., 755., 566., 446., 783., 381.,
          706., 640., 666., 304., 868., 467., 516., 689., 576., 644.,
          386., 669., 447., 720., 452., 650., 640., 542., 663., 402.,
          717., 455., 704., 341., 20., 129., 6.44999981e+00 ]
      - [ 414., 744., 450., 547., 618., 680., 0., 730., 707., 687., 578.,
          606., 714., 429., 736., 377., 713., 671., 431., 719., 436.,
          675., 438., 687., 455., 647., 690., 391., 715., 447., 611.,
          379., 610., 649., 658., 648., 0., 800., 0., 1128., 0., 1337.,
          0., 0., 1537., 0., 0., 0., 2126., 0., 0., 2050., 0., 0., 0.,
          2008., 0., 0., 2223., 0., 0., 0., 0., 0., 3262., 0., 0., 0.,
          0., 0., 0., 0., 4276., 0., 0., 0., 0., 0., 0., 0., 4930., 0.,
          0., 0., 0., 0., 0., 0., 0., 4697., 0., 0., 0., 0., 3384., 0.,
          0., 1642., 638., 475., 38., 35., 9.21052635e-01 ]
      - [ 507., 675., 304., 510., 474., 669., 738., 692., 0., 729., 695.,
          561., 861., 430., 450., 428., 1005., 522., 548., 581., 0.,
          719., 826., 0., 1051., 0., 1143., 0., 1207., 0., 1165., 0.,
          1134., 854., 529., 668., 467., 636., 520., 540., 583., 604.,
          698., 382., 792., 419., 680., 464., 645., 473., 631., 690.,
          415., 620., 498., 738., 383., 737., 668., 390., 613., 444.,
          617., 493., 718., 510., 703., 679., 439., 511., 575., 600.,
          313., 791., 420., 423., 865., 356., 983., 270., 793., 478.,
          715., 598., 349., 713., 402., 795., 389., 794., 332., 645.,
          584., 516., 838., 449., 665., 373., 748., 353., 84., 306.,
          3.64285707e+00 ]
      - [ 489., 740., 364., 665., 264., 800., 585., 478., 784., 454.,
          620., 566., 590., 531., 575., 579., 555., 755., 448., 573.,
          480., 728., 465., 692., 442., 634., 682., 473., 383., 628.,
          346., 572., 564., 588., 560., 712., 789., 0., 0., 1398., 0.,
          0., 0., 2632., 0., 0., 0., 0., 0., 0., 3723., 0., 0., 0., 0.,
          0., 3553., 0., 0., 0., 2548., 0., 0., 1630., 0., 0., 1362., 0.,
          1239., 1014., 0., 770., 798., 631., 0., 624., 1197., 448.,
          665., 473., 613., 453., 738., 585., 434., 649., 383., 631., 0.,
          902., 0., 0., 1731., 0., 0., 0., 0., 2830., 0., 1393., 45.,
          57., 1.26666665e+00 ]
      - [ 466., 486., 0., 0., 1715., 0., 0., 0., 2295., 0., 0., 1850.,
          0., 0., 1167., 1046., 0., 951., 681., 495., 848., 373., 628.,
          701., 467., 691., 526., 582., 695., 382., 399., 396., 982.,
          529., 548., 625., 645., 0., 721., 944., 0., 978., 0., 982.,
          846., 621., 725., 321., 737., 490., 627., 746., 327., 707.,
          516., 670., 430., 632., 667., 501., 715., 377., 591., 452.,
          849., 425., 585., 739., 486., 512., 610., 554., 567., 513.,
          465., 766., 644., 499., 672., 393., 690., 467., 734., 607.,
          407., 680., 422., 626., 477., 623., 506., 575., 912., 292.,
          766., 422., 704., 449., 680., 390., 19., 148., 7.78947353e+00 ]
      - [ 524., 642., 0., 561., 0., 1428., 0., 0., 0., 0., 3192., 0., 0.,
          0., 0., 0., 3106., 0., 0., 0., 0., 3044., 0., 0., 0., 2132.,
          0., 0., 0., 2420., 0., 0., 0., 0., 0., 3181., 0., 0., 0.,
          2279., 0., 0., 1905., 0., 1350., 0., 758., 940., 564., 532.,
          615., 689., 432., 672., 415., 753., 470., 622., 646., 518.,
          698., 410., 684., 467., 656., 484., 648., 659., 351., 785.,
          421., 678., 243., 890., 276., 696., 660., 358., 856., 377.,
          733., 393., 792., 656., 523., 463., 468., 557., 492., 465.,
          613., 574., 686., 799., 0., 805., 703., 747., 670., 374., 40.,
          311., 7.77500010e+00 ]
      - [ 412., 662., 603., 684., 378., 662., 438., 682., 493., 540.,
          663., 344., 640., 401., 924., 0., 1223., 504., 0., 646., 733.,
          902., 0., 904., 0., 1090., 0., 1197., 0., 1160., 0., 1217., 0.,
          1353., 0., 1139., 0., 1168., 0., 1153., 0., 0., 1265., 0.,
          1532., 0., 0., 0., 1884., 0., 0., 1770., 0., 1476., 0., 1267.,
          0., 840., 968., 516., 650., 442., 618., 509., 564., 572., 666.,
          590., 524., 682., 398., 716., 470., 635., 451., 672., 640.,
          489., 631., 420., 730., 351., 761., 550., 603., 303., 418.,
          470., 851., 0., 1143., 855., 676., 440., 631., 248., 611., 0.,
          867., 920., 18., 224., 1.24444447e+01 ]
      - [ 80., 0., 1312., 0., 1243., 0., 0., 1619., 0., 0., 0., 0.,
          3040., 0., 0., 0., 0., 0., 0., 0., 0., 0., 5574., 0., 0., 0.,
          0., 0., 0., 0., 4752., 0., 0., 0., 0., 0., 0., 0., 0., 5223.,
          0., 0., 0., 0., 0., 0., 0., 0., 5023., 0., 0., 0., 0., 0.,
          3579., 0., 0., 0., 2270., 0., 1262., 0., 1148., 0., 738., 614.,
          876., 621., 443., 828., 432., 698., 387., 689., 488., 676.,
          657., 451., 681., 375., 763., 431., 628., 639., 404., 676.,
          488., 715., 432., 662., 502., 666., 635., 332., 508., 620.,
          663., 416., 879., 362., 85., 269., 3.16470599e+00 ]
      - [ 522., 540., 244., 444., 0., 1136., 0., 0., 0., 2781., 0., 0.,
          0., 0., 0., 0., 0., 0., 0., 0., 0., 6988., 0., 0., 0., 0., 0.,
          0., 0., 0., 0., 0., 0., 0., 0., 7551., 0., 0., 0., 0., 0., 0.,
          0., 4671., 0., 0., 0., 0., 0., 3514., 0., 0., 0., 0., 2771.,
          0., 0., 1806., 989., 0., 666., 538., 624., 533., 897., 448.,
          526., 475., 543., 730., 734., 334., 671., 591., 551., 721.,
          699., 476., 508., 532., 774., 399., 647., 508., 558., 766.,
          478., 660., 385., 626., 519., 699., 712., 432., 688., 406.,
          721., 455., 619., 394., 30., 160., 5.33333349e+00 ]
      - [ 498., 372., 776., 0., 743., 676., 633., 0., 912., 957., 0.,
          1185., 0., 0., 1350., 0., 0., 1854., 0., 0., 1642., 0., 1477.,
          0., 0., 1503., 0., 0., 1767., 0., 0., 0., 2036., 0., 0., 0.,
          0., 0., 3712., 0., 0., 0., 0., 0., 3749., 0., 0., 0., 0., 0.,
          0., 3701., 0., 0., 0., 0., 0., 3583., 0., 0., 0., 0., 2945.,
          0., 0., 0., 2153., 0., 0., 1483., 0., 1356., 0., 998., 617.,
          824., 755., 364., 740., 253., 895., 362., 668., 702., 522.,
          614., 520., 565., 427., 747., 468., 721., 462., 503., 707.,
          554., 587., 536., 454., 572., 86., 146., 1.69767439e+00 ]
      - [ 556., 637., 418., 374., 395., 487., 940., 0., 0., 0., 2190.,
          0., 0., 0., 0., 0., 3329., 0., 0., 0., 0., 2994., 0., 0., 0.,
          2569., 0., 0., 1585., 0., 1154., 0., 809., 1155., 437., 463.,
          636., 617., 546., 626., 506., 613., 677., 439., 636., 489.,
          715., 476., 661., 379., 725., 623., 483., 720., 404., 599.,
          445., 701., 704., 467., 604., 485., 706., 357., 642., 536.,
          610., 747., 330., 674., 393., 559., 536., 576., 515., 895.,
          550., 616., 567., 522., 615., 0., 703., 1196., 419., 541.,
          445., 694., 343., 425., 549., 591., 599., 635., 960., 0.,
          1082., 0., 911., 693., 31., 86., 2.77419353e+00 ]
      - [ 498., 659., 267., 870., 0., 628., 807., 0., 1167., 0., 1438.,
          0., 1124., 0., 0., 1287., 0., 1490., 0., 0., 0., 2055., 0., 0.,
          0., 0., 3033., 0., 0., 0., 0., 0., 3286., 0., 0., 0., 0.,
          3010., 0., 0., 0., 0., 0., 3227., 0., 0., 0., 0., 2916., 0.,
          0., 0., 2368., 0., 0., 0., 2164., 0., 0., 2008., 0., 0., 1749.,
          0., 0., 1312., 0., 1150., 1019., 0., 854., 663., 518., 641.,
          603., 544., 548., 808., 398., 700., 693., 396., 734., 625.,
          376., 799., 344., 773., 355., 722., 434., 716., 686., 471.,
          538., 341., 909., 418., 338., 723., 95., 158., 1.66315794e+00 ]
      - [ 511., 706., 464., 536., 306., 799., 329., 685., 817., 356.,
          701., 538., 574., 542., 706., 349., 637., 817., 448., 717.,
          461., 670., 319., 699., 418., 742., 712., 308., 836., 277.,
          808., 284., 685., 808., 351., 434., 493., 521., 584., 820., 0.,
          776., 797., 880., 0., 836., 743., 0., 928., 0., 918., 1188.,
          304., 834., 500., 520., 631., 358., 768., 417., 447., 504.,
          1074., 0., 737., 759., 716., 651., 0., 746., 807., 0., 980.,
          0., 1056., 0., 1103., 0., 1333., 0., 1237., 0., 1190., 0.,
          989., 814., 0., 729., 714., 657., 494., 914., 614., 474., 674.,
          390., 723., 482., 676., 350., 65., 74., 1.13846159e+00 ]
      - [ 567., 645., 378., 676., 550., 637., 481., 620., 507., 594.,
          641., 426., 449., 493., 482., 607., 0., 1025., 0., 0., 1887.,
          0., 0., 0., 0., 0., 3465., 0., 0., 0., 0., 0., 0., 4113., 0.,
          0., 0., 0., 0., 0., 4068., 0., 0., 0., 0., 3010., 0., 0., 0.,
          0., 2632., 0., 0., 0., 0., 0., 0., 3736., 0., 0., 0., 0., 0.,
          0., 0., 0., 0., 0., 0., 7018., 0., 0., 0., 2582., 0., 0., 0.,
          2212., 736., 584., 688., 484., 653., 667., 463., 635., 402.,
          718., 451., 0., 0., 1230., 0., 0., 0., 2520., 0., 0., 0.,
          2468., 101., 37., 3.66336644e-01 ]
      - [ 506., 334., 0., 1067., 793., 660., 0., 727., 855., 0., 1172.,
          0., 894., 646., 749., 604., 570., 554., 519., 544., 504., 491.,
          633., 632., 691., 551., 600., 494., 486., 552., 914., 469.,
          498., 812., 451., 477., 436., 567., 492., 582., 506., 596.,
          581., 638., 655., 672., 605., 0., 742., 694., 692., 676., 670.,
          645., 0., 737., 758., 631., 721., 0., 1342., 0., 1088., 0.,
          1049., 479., 431., 931., 459., 472., 521., 780., 422., 760.,
          371., 535., 597., 727., 360., 476., 874., 440., 646., 680., 0.,
          623., 763., 867., 0., 777., 821., 706., 693., 458., 712., 436.,
          692., 429., 693., 345., 44., 53., 1.20454550e+00 ]
      - [ 506., 622., 288., 829., 0., 818., 0., 1438., 0., 0., 0., 1938.,
          0., 0., 1927., 0., 1245., 789., 0., 983., 473., 742., 443.,
          737., 423., 686., 646., 480., 670., 449., 697., 424., 653.,
          613., 406., 699., 533., 645., 235., 758., 412., 880., 545.,
          458., 615., 433., 692., 530., 661., 335., 398., 1141., 0.,
          732., 753., 734., 0., 817., 0., 1109., 951., 0., 780., 692.,
          704., 0., 667., 682., 722., 713., 0., 993., 865., 0., 705.,
          692., 634., 487., 906., 0., 662., 709., 764., 758., 0., 802.,
          687., 817., 593., 491., 444., 439., 435., 667., 898., 0., 906.,
          844., 667., 384., 42., 75., 1.78571427e+00 ]
      - [ 508., 583., 0., 675., 882., 0., 1061., 0., 1318., 0., 0., 0.,
          1818., 0., 1474., 0., 1176., 0., 1143., 0., 1192., 0., 876.,
          755., 617., 684., 719., 0., 858., 0., 910., 789., 876., 0.,
          944., 0., 1056., 0., 1144., 0., 1033., 1003., 0., 1099., 0.,
          0., 1187., 0., 1248., 0., 1040., 1040., 0., 1226., 0., 630.,
          681., 695., 755., 0., 1334., 0., 1161., 0., 1048., 548., 599.,
          494., 524., 590., 586., 568., 534., 584., 0., 1319., 549., 0.,
          733., 757., 629., 526., 562., 886., 328., 735., 560., 536.,
          523., 721., 415., 651., 791., 432., 665., 370., 686., 532.,
          689., 340., 84., 99., 1.17857146e+00 ]
      - [ 561., 598., 516., 517., 465., 714., 340., 599., 0., 1030., 0.,
          1167., 783., 628., 544., 622., 0., 707., 766., 820., 0., 656.,
          672., 682., 584., 646., 677., 0., 808., 886., 0., 992., 796.,
          501., 440., 894., 357., 611., 628., 766., 364., 747., 700.,
          323., 708., 474., 724., 313., 762., 394., 599., 812., 488., 0.,
          856., 0., 1285., 0., 1110., 0., 1463., 417., 689., 332., 691.,
          389., 636., 718., 422., 841., 417., 729., 372., 613., 480.,
          548., 903., 333., 618., 301., 991., 299., 705., 770., 479.,
          420., 378., 819., 606., 632., 448., 664., 713., 433., 706.,
          395., 660., 507., 521., 510., 42., 94., 2.23809528e+00 ]
      - [ 528., 705., 370., 740., 353., 601., 504., 763., 592., 0., 960.,
          0., 0., 1470., 0., 1473., 0., 0., 0., 2230., 0., 0., 0., 2304.,
          0., 0., 1645., 0., 0., 1725., 0., 0., 1345., 1182., 0., 0.,
          1346., 0., 1318., 0., 897., 580., 1122., 419., 359., 447.,
          809., 408., 752., 342., 760., 673., 349., 935., 289., 629.,
          609., 594., 659., 646., 339., 773., 396., 383., 797., 391.,
          780., 694., 290., 698., 371., 724., 709., 680., 369., 365.,
          913., 384., 438., 605., 627., 791., 618., 601., 547., 712.,
          454., 646., 420., 752., 448., 567., 725., 254., 822., 301.,
          768., 546., 673., 397., 109., 38., 3.48623842e-01 ]
      - [ 497., 573., 445., 585., 374., 554., 0., 931., 0., 1403., 0.,
          1355., 0., 0., 1673., 0., 0., 1812., 0., 0., 0., 2260., 0., 0.,
          0., 0., 2629., 0., 0., 0., 0., 2809., 0., 0., 0., 2517., 0.,
          0., 0., 0., 2680., 0., 0., 0., 0., 0., 3662., 0., 0., 0., 0.,
          3016., 0., 0., 0., 1877., 0., 1232., 1039., 277., 745., 527.,
          662., 429., 668., 486., 713., 683., 456., 635., 449., 721.,
          431., 646., 267., 642., 833., 348., 811., 416., 458., 500.,
          564., 904., 521., 621., 0., 678., 583., 908., 335., 931., 616.,
          529., 659., 401., 709., 502., 662., 351., 35., 121.,
          3.45714283e+00 ]
      - [ 543., 490., 322., 721., 0., 0., 0., 2506., 0., 0., 0., 0.,
          2762., 0., 0., 0., 0., 2629., 0., 1471., 0., 0., 1264., 888.,
          0., 1290., 477., 567., 632., 0., 1263., 260., 679., 566., 388.,
          927., 273., 911., 333., 668., 312., 818., 781., 322., 741.,
          366., 815., 491., 449., 439., 682., 799., 0., 1049., 533.,
          460., 467., 465., 520., 745., 926., 0., 1120., 499., 477.,
          442., 739., 734., 352., 711., 332., 937., 281., 775., 274.,
          695., 527., 518., 842., 337., 860., 437., 607., 703., 503.,
          711., 465., 655., 418., 697., 423., 577., 832., 440., 628.,
          492., 675., 464., 583., 428., 130., 80., 6.15384638e-01 ]
      - [ 500., 665., 470., 612., 385., 568., 589., 673., 485., 767.,
          589., 293., 880., 337., 665., 381., 766., 733., 322., 636.,
          613., 681., 469., 629., 517., 669., 542., 509., 712., 428.,
          729., 365., 728., 590., 540., 591., 0., 599., 828., 716., 317.,
          672., 907., 507., 460., 652., 649., 348., 852., 291., 800., 0.,
          1058., 0., 0., 0., 2212., 0., 0., 0., 0., 2823., 0., 0., 0.,
          0., 2635., 0., 0., 0., 0., 2867., 0., 0., 0., 0., 3233., 0.,
          0., 0., 1967., 0., 0., 1755., 0., 0., 1836., 0., 0., 0., 0.,
          3116., 716., 0., 1095., 490., 689., 470., 300., 712., 248.,
          109., 4.39516127e-01 ]
      - [ 524., 692., 219., 592., 447., 638., 707., 584., 618., 657., 0.,
          753., 713., 789., 0., 1003., 0., 930., 677., 620., 714., 690.,
          0., 675., 619., 661., 753., 751., 0., 717., 571., 720., 749.,
          674., 596., 0., 710., 948., 0., 1100., 0., 668., 685., 759.,
          946., 281., 810., 482., 617., 361., 783., 569., 462., 812.,
          383., 526., 682., 624., 509., 587., 665., 313., 707., 434.,
          374., 505., 1081., 478., 602., 738., 0., 0., 1153., 639., 592.,
          574., 786., 689., 683., 350., 468., 619., 753., 0., 816., 810.,
          700., 589., 521., 470., 667., 532., 787., 281., 824., 399.,
          614., 276., 882., 472., 57., 500., 8.77192974e+00 ]
      - [ 544., 711., 315., 727., 393., 452., 564., 706., 0., 932., 993.,
          0., 0., 1217., 0., 1374., 0., 1289., 0., 1174., 0., 1260., 0.,
          1079., 0., 1006., 873., 0., 888., 0., 735., 696., 752., 888.,
          0., 1097., 0., 1150., 0., 0., 1415., 0., 0., 1702., 0., 0.,
          1721., 0., 0., 1518., 861., 546., 778., 635., 363., 719., 378.,
          786., 735., 312., 830., 302., 783., 474., 608., 441., 749.,
          594., 463., 737., 424., 619., 482., 672., 466., 630., 685.,
          405., 732., 412., 644., 455., 711., 739., 402., 637., 458.,
          507., 558., 674., 336., 849., 443., 392., 1005., 277., 640.,
          535., 761., 385., 150., 10., 6.66666701e-02 ]
      - [ 450., 641., 377., 511., 530., 582., 607., 846., 0., 952., 0.,
          923., 0., 1161., 1015., 0., 0., 1185., 0., 1436., 0., 1289.,
          0., 0., 1373., 0., 1175., 0., 1131., 0., 1028., 0., 1131.,
          1106., 0., 819., 832., 0., 856., 853., 0., 1095., 0., 1006.,
          835., 464., 576., 538., 825., 279., 674., 716., 446., 684.,
          533., 587., 395., 759., 749., 347., 742., 387., 705., 513.,
          549., 524., 707., 595., 357., 679., 556., 681., 353., 757.,
          367., 786., 607., 445., 710., 299., 866., 0., 923., 652., 537.,
          429., 639., 661., 469., 854., 448., 592., 635., 510., 616.,
          316., 669., 569., 753., 426., 152., 11., 7.23684207e-02 ]
      - [ 507., 720., 322., 351., 544., 634., 664., 750., 764., 0., 740.,
          0., 906., 814., 727., 0., 675., 691., 634., 673., 725., 739.,
          0., 789., 778., 703., 0., 743., 716., 699., 578., 506., 719.,
          706., 401., 799., 407., 556., 574., 595., 557., 553., 743.,
          359., 840., 256., 568., 705., 411., 692., 711., 678., 363.,
          723., 423., 409., 792., 400., 752., 350., 781., 362., 737.,
          384., 731., 369., 791., 655., 636., 552., 517., 729., 447.,
          614., 384., 758., 557., 516., 687., 506., 610., 370., 742.,
          600., 467., 654., 607., 651., 347., 791., 467., 535., 805.,
          408., 697., 464., 676., 444., 679., 339., 241., 364.,
          1.51037347e+00 ]
      - [ 517., 704., 255., 832., 303., 610., 699., 456., 442., 478.,
          555., 602., 672., 723., 0., 830., 835., 906., 0., 862., 0.,
          1050., 0., 1018., 0., 1047., 1032., 0., 869., 745., 640., 446.,
          775., 514., 517., 716., 454., 626., 555., 590., 391., 627.,
          686., 597., 569., 520., 726., 389., 742., 360., 620., 768.,
          387., 770., 377., 722., 509., 554., 744., 346., 702., 539.,
          627., 457., 660., 492., 701., 651., 421., 714., 274., 674.,
          412., 493., 532., 853., 716., 297., 628., 376., 803., 432.,
          877., 701., 406., 427., 371., 1063., 317., 735., 352., 620.,
          724., 610., 600., 493., 623., 489., 687., 372., 30., 97.,
          3.23333335e+00 ]
      - [ 544., 651., 328., 439., 573., 569., 630., 549., 919., 365.,
          579., 690., 676., 395., 659., 431., 749., 676., 345., 618.,
          425., 657., 522., 774., 271., 612., 672., 397., 724., 361.,
          763., 420., 897., 477., 454., 928., 457., 505., 599., 617., 0.,
          672., 1168., 0., 626., 614., 609., 637., 613., 724., 667.,
          628., 0., 1181., 0., 612., 571., 596., 1124., 0., 1051., 473.,
          450., 430., 905., 454., 471., 878., 0., 1026., 513., 572.,
          571., 502., 494., 874., 355., 400., 767., 373., 737., 642.,
          754., 654., 389., 667., 472., 721., 427., 564., 579., 600.,
          659., 452., 752., 468., 655., 456., 624., 410., 112., 72.,
          6.42857134e-01 ]
      - [ 428., 582., 274., 975., 0., 691., 0., 1128., 0., 1243., 985.,
          0., 1059., 0., 831., 632., 897., 676., 326., 688., 570., 639.,
          413., 737., 401., 723., 521., 384., 882., 352., 372., 449.,
          600., 660., 609., 775., 0., 1133., 0., 0., 1496., 0., 1614.,
          0., 1036., 0., 739., 627., 683., 0., 828., 887., 0., 1509.,
          372., 747., 370., 711., 594., 339., 904., 313., 671., 422.,
          758., 332., 642., 775., 434., 707., 485., 635., 448., 607.,
          409., 813., 628., 455., 793., 291., 548., 638., 547., 692.,
          618., 629., 490., 652., 435., 731., 428., 575., 800., 385.,
          664., 525., 674., 369., 701., 390., 31., 51., 1.64516127e+00 ]
      - [ 528., 628., 396., 297., 584., 0., 1415., 0., 1324., 0., 0.,
          1274., 0., 1145., 1017., 0., 1014., 0., 1121., 0., 903., 1026.,
          0., 0., 1200., 0., 1299., 0., 0., 1689., 0., 1354., 0., 1081.,
          0., 1102., 0., 1045., 0., 978., 0., 1142., 1043., 0., 1105.,
          0., 1214., 0., 0., 1270., 1046., 569., 433., 622., 585., 708.,
          348., 794., 550., 571., 623., 338., 751., 423., 443., 503.,
          549., 1052., 0., 1150., 0., 1131., 390., 567., 512., 654.,
          655., 481., 668., 450., 771., 0., 692., 950., 558., 622., 423.,
          721., 482., 694., 449., 653., 706., 435., 692., 449., 655.,
          398., 744., 346., 83., 116., 1.39759040e+00 ]
      - [ 559., 657., 460., 615., 413., 690., 435., 688., 700., 269.,
          898., 316., 591., 642., 563., 478., 561., 619., 682., 473.,
          644., 0., 907., 0., 1168., 0., 1429., 0., 0., 0., 0., 2392.,
          0., 0., 0., 2239., 0., 0., 0., 0., 3060., 0., 0., 0., 0., 0.,
          3446., 0., 0., 0., 0., 0., 3376., 0., 0., 0., 2281., 0., 1254.,
          901., 0., 815., 990., 333., 792., 451., 557., 776., 323., 679.,
          520., 721., 436., 589., 385., 797., 514., 471., 766., 530.,
          470., 549., 740., 586., 551., 650., 185., 762., 407., 408.,
          556., 575., 1173., 0., 1105., 445., 630., 511., 687., 359.,
          104., 55., 5.28846145e-01 ]
      - [ 538., 567., 433., 605., 0., 1279., 0., 1152., 591., 0., 613.,
          651., 607., 632., 575., 509., 993., 490., 455., 540., 598.,
          635., 545., 494., 424., 785., 628., 526., 708., 444., 665.,
          552., 678., 250., 562., 1008., 0., 991., 0., 0., 0., 1732., 0.,
          1369., 964., 0., 1100., 0., 992., 0., 1013., 935., 0., 950.,
          0., 878., 0., 1039., 1078., 0., 1106., 0., 1024., 0., 876.,
          806., 717., 730., 0., 638., 643., 542., 577., 587., 504., 988.,
          589., 0., 1080., 0., 1086., 0., 747., 1270., 375., 610., 639.,
          593., 480., 684., 474., 663., 617., 525., 665., 451., 672.,
          454., 575., 440., 31., 78., 2.51612902e+00 ]
      - [ 562., 572., 444., 635., 577., 571., 512., 625., 722., 469.,
          664., 455., 515., 500., 784., 463., 601., 615., 574., 658.,
          411., 601., 582., 573., 467., 511., 712., 439., 484., 562.,
          626., 604., 648., 577., 475., 547., 638., 651., 566., 459.,
          425., 822., 794., 394., 721., 339., 637., 635., 574., 525.,
          595., 738., 348., 723., 343., 686., 611., 677., 568., 317.,
          786., 389., 471., 647., 528., 551., 552., 576., 733., 627.,
          657., 685., 0., 1064., 0., 983., 0., 974., 802., 0., 804.,
          713., 630., 617., 594., 832., 0., 1211., 0., 687., 723., 0.,
          1027., 0., 1306., 0., 1369., 0., 1202., 337., 90., 88.,
          9.77777779e-01 ]
      - [ 352., 353., 727., 0., 1234., 0., 0., 1579., 0., 0., 1744., 0.,
          1416., 0., 823., 635., 867., 383., 659., 643., 303., 930.,
          312., 708., 411., 819., 0., 736., 964., 0., 1094., 0., 0.,
          1363., 0., 0., 0., 0., 2910., 0., 0., 0., 0., 0., 3804., 0.,
          0., 0., 0., 0., 3300., 0., 0., 1544., 0., 984., 757., 665.,
          737., 579., 578., 559., 612., 512., 509., 519., 563., 629., 0.,
          821., 689., 886., 0., 1064., 0., 1147., 735., 489., 462., 512.,
          498., 849., 376., 746., 350., 727., 730., 398., 352., 809.,
          422., 479., 1015., 475., 410., 752., 618., 486., 648., 439.,
          202., 48., 2.37623766e-01 ]
      - [ 539., 448., 0., 860., 0., 1035., 986., 699., 440., 661., 594.,
          533., 619., 367., 681., 459., 539., 592., 689., 653., 0., 684.,
          710., 891., 0., 0., 1688., 0., 0., 0., 0., 0., 0., 0., 4626.,
          0., 0., 0., 0., 0., 0., 0., 0., 0., 5893., 0., 0., 0., 0., 0.,
          0., 3939., 0., 0., 1550., 796., 461., 590., 620., 470., 670.,
          564., 642., 253., 597., 680., 707., 650., 306., 812., 480.,
          702., 457., 317., 519., 582., 0., 1112., 0., 1225., 0., 1104.,
          677., 970., 425., 632., 389., 577., 594., 573., 529., 602.,
          612., 600., 609., 367., 876., 344., 791., 342., 200., 54.,
          2.70000011e-01 ]
      - [ 505., 680., 360., 747., 367., 808., 452., 575., 791., 381.,
          639., 415., 735., 353., 805., 322., 676., 499., 685., 690., 0.,
          1009., 464., 477., 809., 454., 883., 0., 968., 561., 470.,
          500., 791., 765., 393., 395., 689., 634., 300., 839., 488.,
          512., 749., 511., 557., 505., 774., 470., 673., 441., 651.,
          658., 508., 522., 591., 603., 376., 626., 829., 255., 917.,
          344., 711., 506., 614., 501., 677., 662., 436., 700., 460.,
          630., 439., 521., 604., 601., 506., 0., 811., 0., 0., 1812.,
          0., 0., 0., 0., 0., 3372., 0., 0., 0., 0., 0., 0., 4456., 0.,
          0., 0., 0., 2735., 26., 90., 3.46153855e+00 ]
      - [ 241., 513., 629., 549., 461., 507., 657., 852., 0., 1135., 0.,
          1084., 0., 1083., 0., 1162., 0., 1210., 0., 1317., 0., 0.,
          1573., 0., 0., 1463., 0., 1194., 0., 1112., 1087., 0., 1039.,
          0., 1081., 0., 0., 1320., 0., 1457., 0., 0., 1517., 0., 1620.,
          0., 0., 1496., 0., 0., 1553., 0., 0., 1661., 0., 1278., 0.,
          1022., 707., 838., 512., 447., 831., 346., 678., 374., 830.,
          700., 355., 616., 413., 749., 278., 870., 428., 545., 464.,
          800., 655., 356., 887., 0., 569., 1133., 0., 1071., 448., 514.,
          328., 984., 430., 751., 707., 290., 842., 447., 648., 462.,
          672., 352., 13., 407., 3.13076916e+01 ]
      - [ 323., 601., 332., 918., 542., 553., 536., 659., 766., 0., 933.,
          0., 922., 0., 934., 1060., 0., 1013., 0., 807., 828., 781., 0.,
          742., 617., 877., 0., 1073., 863., 0., 655., 611., 800., 601.,
          588., 591., 568., 539., 574., 745., 449., 366., 804., 662.,
          553., 558., 581., 329., 708., 302., 990., 655., 365., 747.,
          338., 811., 240., 703., 872., 326., 771., 406., 663., 427.,
          658., 525., 686., 572., 557., 596., 438., 727., 467., 630.,
          497., 699., 491., 460., 774., 486., 614., 510., 668., 628.,
          424., 719., 404., 756., 416., 665., 445., 709., 699., 0., 652.,
          0., 941., 0., 1634., 475., 99., 235., 2.37373734e+00 ]
      - [ 468., 661., 431., 668., 409., 796., 436., 372., 806., 0., 0.,
          0., 0., 0., 0., 3814., 0., 0., 0., 0., 0., 0., 0., 0., 0., 0.,
          0., 0., 0., 0., 8659., 0., 0., 0., 0., 0., 0., 3854., 0., 0.,
          1944., 0., 1060., 565., 954., 380., 665., 485., 714., 312.,
          778., 596., 419., 638., 509., 716., 390., 758., 697., 329.,
          738., 465., 707., 255., 801., 435., 624., 702., 509., 700.,
          464., 604., 0., 696., 838., 535., 744., 603., 667., 256., 815.,
          369., 764., 553., 527., 766., 304., 642., 494., 826., 406.,
          572., 581., 534., 641., 0., 892., 0., 1437., 451., 150., 79.,
          5.26666641e-01 ]
      - [ 91., 567., 861., 753., 0., 757., 874., 559., 545., 591., 480.,
          735., 653., 486., 747., 415., 658., 690., 433., 716., 407.,
          322., 602., 629., 0., 919., 1063., 0., 0., 1462., 0., 990.,
          863., 771., 0., 683., 753., 596., 442., 824., 402., 727., 752.,
          342., 639., 317., 898., 334., 764., 437., 549., 522., 517.,
          579., 505., 493., 542., 1036., 653., 0., 768., 760., 0., 846.,
          782., 506., 865., 681., 326., 771., 439., 701., 392., 747.,
          394., 694., 671., 444., 659., 490., 589., 462., 667., 326.,
          577., 0., 1003., 0., 1320., 0., 0., 0., 2374., 0., 0., 0., 0.,
          0., 3287., 714., 53., 47., 8.86792481e-01 ]
      - [ 227., 561., 0., 990., 0., 1211., 803., 611., 604., 480., 721.,
          520., 750., 315., 690., 343., 815., 438., 513., 500., 479.,
          917., 450., 447., 826., 639., 539., 491., 653., 466., 559.,
          400., 889., 481., 508., 542., 473., 984., 457., 640., 443.,
          736., 568., 464., 581., 562., 396., 562., 554., 720., 0.,
          1221., 0., 1257., 274., 832., 331., 619., 880., 500., 545.,
          572., 319., 747., 658., 398., 693., 727., 454., 619., 533.,
          665., 461., 632., 398., 687., 724., 465., 669., 420., 654.,
          453., 718., 615., 527., 587., 512., 521., 365., 721., 389.,
          834., 508., 679., 0., 963., 0., 1224., 684., 428., 72., 106.,
          1.47222221e+00 ]
      - [ 513., 295., 580., 937., 430., 450., 389., 0., 0., 0., 2229.,
          0., 0., 0., 0., 0., 0., 0., 0., 5395., 0., 0., 0., 0., 0., 0.,
          0., 4813., 0., 0., 0., 0., 0., 0., 3874., 0., 0., 0., 0., 0.,
          3331., 0., 0., 0., 2078., 0., 0., 2012., 0., 0., 1413., 835.,
          488., 935., 361., 805., 412., 634., 675., 502., 664., 445.,
          631., 518., 572., 567., 615., 711., 428., 472., 614., 359.,
          805., 421., 734., 576., 757., 0., 906., 533., 756., 437., 665.,
          690., 520., 652., 442., 652., 471., 648., 417., 670., 692.,
          374., 754., 426., 659., 503., 635., 423., 75., 44.,
          5.86666644e-01 ]
      - [ 536., 597., 392., 471., 636., 634., 544., 442., 886., 379.,
          457., 529., 616., 760., 0., 830., 786., 772., 0., 897., 0.,
          844., 788., 719., 627., 676., 545., 501., 504., 497., 789.,
          593., 489., 595., 585., 675., 577., 546., 492., 330., 474.,
          1088., 600., 409., 613., 577., 677., 432., 591., 524., 672.,
          674., 415., 690., 534., 625., 376., 611., 664., 530., 792.,
          435., 581., 303., 761., 537., 602., 642., 461., 799., 397.,
          750., 423., 669., 436., 716., 647., 418., 629., 420., 675.,
          432., 775., 665., 430., 710., 0., 0., 1395., 0., 0., 0., 2277.,
          0., 0., 0., 0., 0., 3458., 653., 61., 74., 1.21311474e+00 ]
      - [ 552., 627., 0., 1157., 0., 0., 0., 1668., 0., 0., 2251., 0.,
          0., 0., 0., 0., 0., 3585., 0., 0., 0., 0., 0., 3291., 0., 0.,
          0., 0., 3201., 0., 0., 0., 0., 2887., 0., 0., 0., 2088., 0.,
          1501., 0., 0., 1543., 0., 1342., 0., 794., 605., 906., 342.,
          848., 626., 575., 430., 498., 687., 455., 814., 696., 463.,
          609., 490., 607., 507., 667., 481., 660., 681., 360., 680.,
          451., 727., 335., 761., 371., 715., 663., 446., 735., 287.,
          691., 464., 428., 559., 546., 603., 563., 570., 773., 0., 895.,
          978., 0., 845., 724., 687., 568., 428., 816., 397., 50., 306.,
          6.11999989e+00 ]
      - [ 278., 952., 0., 0., 0., 0., 0., 2731., 0., 0., 0., 0., 0., 0.,
          4435., 0., 0., 0., 0., 0., 0., 0., 0., 0., 5667., 0., 0., 0.,
          0., 0., 0., 0., 4866., 0., 0., 0., 0., 0., 3084., 0., 0., 0.,
          2340., 0., 0., 0., 2289., 0., 0., 0., 2016., 0., 0., 1751., 0.,
          0., 1831., 0., 1627., 0., 0., 1337., 0., 1134., 890., 0.,
          1100., 442., 759., 633., 441., 707., 502., 619., 497., 674.,
          682., 428., 696., 403., 711., 416., 726., 616., 501., 618.,
          285., 731., 518., 534., 0., 704., 844., 860., 0., 911., 876.,
          0., 997., 541., 29., 166., 5.72413778e+00 ]
      - [ 522., 525., 568., 505., 420., 758., 0., 731., 1227., 0., 892.,
          0., 1069., 0., 1020., 0., 949., 1034., 0., 0., 1632., 0., 0.,
          1368., 0., 0., 1961., 0., 0., 0., 2440., 0., 0., 0., 0., 2932.,
          0., 0., 0., 0., 0., 0., 3961., 0., 0., 0., 0., 0., 0., 0., 0.,
          0., 0., 6215., 0., 0., 0., 0., 0., 0., 0., 0., 0., 0., 6483.,
          0., 0., 0., 0., 0., 0., 0., 0., 0., 0., 5746., 0., 0., 0., 0.,
          0., 0., 0., 0., 5564., 0., 0., 0., 0., 2608., 0., 0., 0., 0.,
          0., 3605., 0., 0., 2038., 427., 91., 78., 8.57142866e-01 ]
      - [ 475., 740., 446., 639., 454., 652., 394., 688., 686., 488.,
          580., 487., 726., 480., 632., 484., 514., 794., 420., 417.,
          665., 559., 661., 424., 388., 961., 459., 712., 387., 451.,
          537., 534., 529., 603., 656., 557., 520., 986., 463., 500.,
          444., 868., 458., 489., 889., 430., 486., 454., 470., 421.,
          934., 470., 457., 952., 491., 576., 597., 666., 645., 0., 597.,
          675., 571., 529., 522., 571., 521., 1211., 0., 991., 466.,
          495., 396., 851., 485., 502., 531., 526., 643., 0., 912., 898.,
          788., 0., 763., 692., 0., 953., 827., 774., 0., 827., 0., 0.,
          1661., 0., 1549., 512., 675., 341., 68., 63., 9.26470578e-01 ]
      - [ 546., 663., 438., 656., 495., 502., 0., 0., 1584., 0., 0.,
          1638., 830., 561., 667., 424., 370., 889., 390., 522., 591.,
          703., 0., 1289., 0., 649., 980., 0., 1248., 0., 0., 1351., 0.,
          1317., 0., 1346., 0., 997., 0., 872., 739., 728., 744., 0.,
          694., 584., 960., 490., 443., 420., 730., 728., 432., 836., 0.,
          1061., 0., 594., 809., 0., 982., 1060., 0., 922., 595., 575.,
          478., 562., 698., 872., 294., 751., 502., 683., 462., 595.,
          721., 388., 745., 294., 385., 546., 672., 746., 646., 640., 0.,
          683., 784., 0., 1071., 0., 1168., 0., 1305., 0., 1137., 0.,
          1001., 727., 77., 41., 5.32467544e-01 ]
      - [ 407., 443., 423., 965., 0., 982., 629., 658., 677., 389., 729.,
          392., 421., 475., 911., 510., 417., 838., 463., 818., 0., 881.,
          485., 532., 489., 570., 567., 554., 633., 564., 637., 685.,
          657., 654., 574., 526., 509., 502., 488., 872., 473., 431.,
          883., 408., 391., 430., 912., 384., 837., 428., 388., 844.,
          392., 679., 691., 670., 347., 720., 675., 389., 397., 445.,
          889., 516., 537., 446., 832., 693., 409., 425., 817., 378.,
          734., 383., 680., 559., 554., 676., 601., 519., 593., 424.,
          780., 734., 378., 744., 464., 666., 365., 744., 411., 699.,
          661., 453., 621., 487., 728., 408., 516., 536., 48., 100.,
          2.08333325e+00 ]
      - [ 479., 541., 339., 946., 358., 742., 343., 814., 584., 501.,
          697., 452., 668., 496., 555., 482., 600., 810., 417., 721.,
          327., 733., 474., 714., 295., 605., 827., 413., 457., 578.,
          657., 628., 597., 623., 0., 655., 667., 717., 721., 640., 566.,
          532., 564., 535., 812., 328., 593., 452., 863., 435., 710.,
          497., 296., 773., 455., 820., 387., 445., 997., 459., 393.,
          744., 404., 481., 894., 347., 588., 757., 407., 825., 415.,
          654., 408., 776., 359., 733., 682., 370., 756., 483., 664.,
          243., 678., 835., 401., 434., 457., 964., 409., 442., 389.,
          799., 418., 501., 759., 0., 1058., 0., 1163., 718., 37., 82.,
          2.21621633e+00 ]
      - [ 232., 605., 610., 0., 940., 804., 604., 449., 953., 482., 702.,
          335., 548., 382., 797., 642., 292., 942., 317., 842., 336.,
          847., 374., 723., 328., 679., 683., 328., 796., 493., 461.,
          521., 557., 650., 518., 598., 585., 510., 518., 929., 306.,
          772., 440., 519., 808., 0., 796., 515., 930., 569., 556., 644.,
          0., 704., 660., 635., 730., 704., 740., 0., 806., 0., 936.,
          869., 0., 941., 947., 0., 971., 850., 0., 869., 0., 933., 869.,
          0., 830., 717., 716., 496., 462., 438., 939., 761., 322., 778.,
          262., 832., 516., 581., 547., 596., 738., 421., 722., 407.,
          730., 441., 651., 366., 43., 59., 1.37209308e+00 ]
      - [ 449., 422., 0., 863., 0., 1227., 0., 1200., 0., 1465., 0., 0.,
          1392., 0., 1435., 0., 0., 1654., 0., 0., 1564., 0., 1249., 0.,
          1155., 0., 1142., 0., 983., 0., 1017., 0., 1081., 1175., 0.,
          0., 1409., 857., 0., 757., 622., 556., 886., 368., 954., 277.,
          769., 419., 747., 400., 711., 656., 498., 631., 516., 633.,
          460., 700., 480., 591., 556., 555., 565., 629., 575., 509.,
          545., 796., 306., 788., 0., 609., 670., 672., 510., 814., 740.,
          286., 883., 477., 681., 327., 732., 587., 415., 800., 289.,
          778., 484., 724., 473., 633., 657., 497., 621., 462., 567.,
          592., 533., 493., 108., 228., 2.11111116e+00 ]
      - [ 520., 685., 270., 816., 255., 422., 668., 944., 639., 0., 581.,
          623., 704., 660., 542., 519., 573., 885., 0., 1013., 0., 933.,
          0., 1053., 932., 0., 1293., 0., 664., 525., 565., 654., 707.,
          636., 609., 572., 455., 931., 0., 908., 461., 497., 963., 543.,
          531., 606., 520., 0., 605., 714., 659., 704., 705., 666., 0.,
          594., 743., 1012., 383., 692., 642., 541., 559., 332., 616.,
          741., 547., 661., 372., 892., 424., 604., 424., 735., 509.,
          650., 646., 453., 695., 408., 697., 492., 580., 762., 423.,
          677., 474., 570., 487., 715., 381., 627., 0., 997., 0., 0.,
          1470., 0., 1548., 495., 25., 120., 4.80000019e+00 ]
      - [ 559., 481., 609., 287., 434., 1041., 0., 588., 659., 884.,
          815., 0., 985., 607., 569., 486., 540., 709., 461., 835., 275.,
          839., 308., 579., 686., 342., 820., 416., 869., 460., 446.,
          609., 593., 509., 501., 492., 479., 948., 465., 459., 449.,
          800., 811., 451., 372., 406., 863., 452., 476., 487., 830.,
          888., 437., 365., 406., 776., 383., 822., 807., 374., 760.,
          369., 762., 293., 817., 241., 828., 522., 493., 750., 284.,
          799., 473., 777., 475., 658., 665., 359., 652., 452., 689.,
          531., 645., 719., 452., 652., 478., 644., 429., 663., 467.,
          639., 635., 280., 952., 0., 734., 0., 1047., 816., 81., 159.,
          1.96296299e+00 ]
      - [ 507., 598., 510., 715., 395., 702., 426., 730., 669., 406.,
          570., 555., 545., 442., 820., 278., 811., 646., 325., 622.,
          724., 562., 0., 1154., 0., 647., 709., 703., 805., 0., 787.,
          804., 0., 918., 816., 624., 621., 440., 337., 1026., 440.,
          393., 926., 455., 442., 413., 580., 494., 671., 572., 636.,
          785., 537., 552., 531., 541., 669., 0., 886., 876., 0., 969.,
          0., 1223., 0., 1078., 0., 1075., 820., 722., 0., 605., 587.,
          954., 380., 843., 681., 237., 777., 559., 312., 393., 1103.,
          571., 382., 725., 446., 681., 559., 610., 475., 614., 692.,
          456., 618., 483., 762., 435., 492., 533., 72., 125.,
          1.73611116e+00 ]
      - [ 506., 245., 646., 0., 982., 998., 0., 870., 930., 0., 932., 0.,
          1182., 0., 1267., 464., 604., 0., 830., 974., 0., 0., 1345.,
          0., 0., 1483., 0., 0., 0., 2457., 0., 0., 1869., 0., 1456., 0.,
          0., 1483., 0., 1435., 0., 0., 1583., 0., 1309., 0., 1156., 0.,
          1048., 0., 854., 835., 0., 1047., 0., 1292., 510., 587., 766.,
          0., 0., 1309., 0., 0., 1709., 0., 0., 1624., 0., 1336., 0.,
          1437., 410., 644., 191., 373., 1093., 488., 836., 389., 667.,
          277., 856., 733., 281., 658., 383., 516., 720., 552., 360.,
          930., 432., 592., 538., 620., 695., 0., 1237., 369., 98., 94.,
          9.59183693e-01 ]
      - [ 485., 573., 289., 701., 455., 588., 754., 0., 1101., 0., 1300.,
          0., 0., 1537., 0., 0., 1762., 0., 0., 1920., 0., 0., 0., 2135.,
          0., 0., 1861., 0., 0., 1554., 0., 0., 1372., 1170., 0., 1103.,
          0., 1041., 0., 917., 0., 911., 870., 0., 869., 821., 811., 0.,
          790., 739., 733., 743., 0., 722., 704., 616., 647., 602., 503.,
          506., 856., 408., 737., 368., 721., 339., 577., 828., 287.,
          778., 456., 692., 413., 721., 502., 627., 696., 410., 516.,
          708., 636., 291., 711., 726., 451., 630., 488., 642., 336.,
          720., 631., 504., 835., 433., 714., 456., 679., 456., 670.,
          346., 38., 83., 2.18421054e+00 ]
      - [ 540., 655., 268., 626., 346., 497., 616., 765., 769., 0., 885.,
          0., 1075., 0., 1297., 0., 1357., 0., 0., 1349., 0., 1282., 0.,
          1309., 0., 1027., 858., 0., 720., 569., 960., 419., 425., 803.,
          339., 734., 659., 654., 305., 872., 459., 508., 699., 488.,
          712., 495., 603., 473., 535., 501., 764., 493., 531., 769.,
          460., 709., 410., 639., 618., 485., 577., 339., 711., 387.,
          741., 592., 671., 650., 470., 707., 491., 649., 392., 676.,
          558., 505., 672., 560., 646., 431., 773., 237., 792., 723.,
          296., 709., 602., 692., 282., 734., 523., 668., 703., 443.,
          635., 479., 681., 450., 467., 555., 43., 90., 2.09302330e+00 ]
      - [ 493., 690., 0., 0., 0., 0., 2681., 0., 0., 0., 2027., 0., 0.,
          1709., 0., 0., 1497., 0., 1743., 0., 0., 1316., 0., 1517.,
          493., 684., 594., 539., 623., 346., 656., 547., 521., 744.,
          382., 807., 455., 638., 0., 737., 907., 0., 911., 0., 1181.,
          0., 1203., 0., 1105., 0., 1041., 997., 0., 930., 0., 1002., 0.,
          982., 0., 1346., 749., 663., 590., 556., 511., 434., 702.,
          703., 576., 692., 403., 746., 466., 619., 467., 617., 686.,
          421., 736., 470., 526., 478., 693., 744., 261., 761., 298.,
          860., 394., 565., 281., 1087., 656., 442., 575., 571., 638.,
          500., 605., 414., 46., 456., 9.91304302e+00 ]
      - [ 486., 633., 306., 672., 434., 480., 532., 664., 738., 0., 869.,
          867., 0., 871., 869., 0., 845., 862., 0., 901., 910., 0., 884.,
          854., 0., 851., 782., 0., 768., 734., 721., 665., 667., 629.,
          0., 638., 693., 600., 551., 547., 474., 954., 446., 471., 899.,
          470., 449., 433., 801., 417., 823., 752., 353., 786., 367.,
          725., 370., 709., 732., 328., 746., 417., 702., 341., 712.,
          391., 740., 745., 380., 729., 370., 717., 378., 743., 377.,
          706., 667., 548., 490., 488., 809., 366., 778., 599., 566.,
          574., 495., 642., 527., 676., 409., 712., 632., 478., 664.,
          449., 671., 463., 425., 596., 37., 49., 1.32432437e+00 ]
      - [ 530., 584., 276., 937., 356., 405., 421., 974., 579., 642., 0.,
          752., 899., 0., 987., 0., 1145., 0., 1158., 0., 1323., 0., 0.,
          1371., 0., 0., 1721., 0., 0., 1814., 0., 0., 1725., 0., 1418.,
          0., 0., 1277., 1001., 0., 906., 776., 773., 0., 726., 725.,
          701., 0., 680., 652., 621., 640., 660., 673., 647., 682., 0.,
          721., 685., 685., 748., 0., 664., 604., 638., 576., 620., 597.,
          557., 890., 409., 787., 359., 629., 590., 580., 785., 460.,
          549., 559., 578., 519., 636., 711., 452., 631., 448., 681.,
          445., 663., 467., 710., 689., 401., 677., 508., 673., 430.,
          691., 341., 37., 41., 1.10810816e+00 ]
      - [ 553., 539., 550., 693., 274., 830., 306., 738., 376., 422.,
          933., 443., 442., 443., 915., 482., 475., 976., 0., 885., 470.,
          430., 511., 973., 448., 465., 943., 464., 541., 469., 492.,
          499., 598., 666., 688., 624., 0., 724., 944., 0., 952., 765.,
          0., 871., 863., 0., 808., 926., 0., 850., 962., 0., 915., 0.,
          1124., 0., 1218., 0., 1328., 0., 1215., 0., 0., 1229., 0.,
          1110., 1000., 0., 824., 978., 0., 807., 721., 651., 575., 630.,
          579., 564., 492., 480., 529., 464., 610., 928., 460., 788.,
          311., 829., 280., 782., 368., 748., 732., 438., 680., 428.,
          692., 437., 686., 349., 38., 66., 1.73684216e+00 ]
      - [ 465., 612., 553., 716., 428., 549., 578., 0., 703., 723., 749.,
          0., 773., 769., 733., 0., 762., 785., 777., 842., 0., 876., 0.,
          1094., 0., 1380., 0., 0., 1302., 0., 1211., 0., 1347., 0., 0.,
          1569., 0., 0., 0., 2263., 0., 0., 2169., 0., 0., 0., 1722., 0.,
          1346., 0., 983., 750., 551., 906., 419., 393., 729., 686.,
          614., 342., 611., 661., 644., 318., 901., 275., 583., 901.,
          521., 553., 294., 833., 562., 544., 550., 539., 561., 548.,
          782., 505., 464., 647., 617., 658., 406., 716., 467., 687.,
          438., 732., 437., 682., 692., 399., 715., 457., 667., 423.,
          658., 383., 45., 86., 1.91111112e+00 ]
      - [ 486., 745., 229., 564., 381., 885., 520., 560., 641., 660., 0.,
          818., 1027., 0., 0., 1455., 0., 0., 0., 1983., 0., 1678., 0.,
          0., 0., 2072., 0., 0., 1928., 0., 0., 0., 2000., 0., 0., 1626.,
          0., 1352., 0., 1223., 0., 1201., 0., 0., 0., 1965., 0., 0., 0.,
          2154., 0., 0., 1889., 0., 0., 1613., 0., 1146., 896., 0.,
          1336., 479., 418., 696., 615., 309., 665., 619., 598., 604.,
          550., 791., 255., 714., 464., 679., 804., 366., 734., 326.,
          695., 470., 775., 649., 477., 578., 463., 728., 407., 711.,
          437., 643., 728., 439., 652., 447., 648., 503., 683., 348.,
          63., 171., 2.71428561e+00 ]
      - [ 546., 643., 445., 717., 357., 693., 391., 730., 663., 364.,
          627., 514., 538., 630., 567., 535., 603., 845., 265., 757.,
          567., 474., 442., 696., 636., 631., 684., 284., 843., 280.,
          641., 382., 666., 658., 636., 600., 516., 714., 473., 498.,
          563., 773., 471., 0., 719., 785., 789., 623., 564., 523., 680.,
          525., 0., 632., 798., 0., 1009., 0., 1411., 0., 1226., 0.,
          1030., 0., 872., 671., 602., 849., 648., 607., 544., 526.,
          580., 574., 319., 650., 940., 262., 775., 283., 847., 497.,
          717., 682., 408., 725., 333., 676., 539., 644., 423., 687.,
          631., 450., 542., 658., 373., 470., 759., 565., 70., 107.,
          1.52857149e+00 ]
      - [ 450., 475., 345., 658., 0., 1268., 0., 0., 0., 2511., 0., 0.,
          1253., 873., 0., 835., 892., 791., 0., 842., 0., 906., 801.,
          868., 0., 702., 798., 738., 0., 831., 842., 0., 853., 797.,
          698., 0., 805., 788., 0., 816., 799., 731., 726., 0., 628.,
          690., 672., 701., 710., 0., 645., 1150., 0., 671., 659., 645.,
          539., 515., 965., 432., 451., 553., 559., 573., 562., 572.,
          859., 364., 688., 548., 470., 804., 357., 749., 418., 640.,
          786., 317., 701., 536., 631., 410., 660., 683., 460., 661.,
          524., 642., 384., 807., 374., 754., 684., 422., 698., 424.,
          690., 442., 679., 350., 53., 91., 1.71698117e+00 ]
      - [ 530., 592., 0., 948., 0., 965., 0., 1029., 1191., 0., 851.,
          680., 660., 467., 621., 405., 758., 644., 497., 525., 424.,
          725., 428., 787., 382., 794., 549., 546., 620., 405., 660.,
          580., 645., 543., 509., 711., 513., 491., 519., 772., 290.,
          766., 481., 561., 536., 548., 706., 610., 423., 438., 843.,
          394., 434., 1067., 316., 684., 545., 518., 585., 534., 853.,
          313., 654., 562., 552., 578., 361., 707., 758., 573., 556.,
          585., 392., 423., 469., 779., 681., 589., 595., 308., 801.,
          351., 695., 923., 263., 820., 513., 531., 451., 797., 273.,
          646., 877., 471., 652., 439., 633., 0., 1117., 414., 262.,
          358., 1.36641216e+00 ]
      - [ 523., 659., 229., 811., 0., 588., 841., 837., 0., 805., 755.,
          686., 618., 603., 654., 0., 801., 967., 0., 902., 704., 0.,
          877., 0., 1108., 0., 1079., 0., 1153., 0., 997., 0., 1208., 0.,
          0., 0., 2521., 0., 0., 0., 0., 0., 0., 0., 0., 0., 5819., 0.,
          0., 0., 0., 3059., 0., 0., 0., 0., 2577., 0., 0., 1910., 0.,
          0., 1594., 0., 0., 1668., 0., 1314., 0., 1138., 0., 1068., 0.,
          903., 802., 735., 636., 517., 415., 781., 428., 400., 824.,
          744., 398., 804., 426., 657., 474., 667., 453., 662., 688.,
          424., 704., 364., 722., 457., 670., 372., 34., 64.,
          1.88235295e+00 ]
      - [ 439., 701., 323., 575., 0., 809., 901., 0., 1115., 0., 912.,
          756., 900., 317., 702., 511., 528., 900., 317., 777., 271.,
          730., 578., 557., 557., 639., 596., 621., 623., 427., 590.,
          530., 720., 681., 471., 554., 445., 755., 401., 660., 407.,
          771., 647., 448., 685., 436., 611., 520., 557., 519., 645.,
          773., 368., 680., 431., 770., 466., 627., 658., 399., 779.,
          464., 493., 322., 571., 743., 400., 734., 383., 463., 695.,
          1024., 0., 0., 1322., 0., 1165., 0., 1242., 0., 1219., 0., 0.,
          1634., 0., 0., 0., 2524., 0., 0., 0., 0., 2739., 0., 0., 0.,
          0., 2700., 0., 1277., 67., 47., 7.01492548e-01 ]
      - [ 545., 666., 0., 857., 0., 0., 0., 2149., 0., 0., 0., 0., 0.,
          0., 3813., 0., 0., 0., 2840., 0., 0., 0., 0., 2307., 0., 1384.,
          945., 0., 832., 0., 860., 750., 774., 0., 917., 1009., 0.,
          829., 794., 0., 799., 985., 0., 1163., 0., 0., 1650., 0., 0.,
          0., 0., 2408., 0., 0., 0., 2425., 0., 0., 2200., 0., 0., 0.,
          2184., 0., 0., 0., 1850., 0., 0., 1921., 0., 1166., 0., 895.,
          756., 682., 615., 612., 503., 518., 836., 374., 669., 703.,
          435., 808., 407., 737., 370., 754., 389., 685., 706., 457.,
          686., 446., 673., 430., 616., 416., 47., 73., 1.55319154e+00 ]
      - [ 556., 207., 478., 778., 0., 1071., 0., 1215., 0., 1082., 896.,
          0., 834., 765., 0., 843., 998., 0., 0., 1221., 0., 1599., 0.,
          0., 0., 1903., 0., 0., 0., 2535., 0., 0., 0., 0., 2758., 0.,
          0., 0., 2559., 0., 0., 0., 2071., 0., 0., 0., 2099., 0., 0.,
          0., 2277., 0., 0., 0., 2465., 0., 0., 0., 2137., 0., 1431., 0.,
          1079., 811., 0., 728., 902., 813., 370., 702., 320., 840.,
          256., 754., 524., 688., 692., 265., 603., 608., 715., 447.,
          541., 867., 330., 737., 493., 669., 498., 629., 479., 678.,
          673., 363., 718., 446., 698., 452., 684., 350., 74., 101.,
          1.36486483e+00 ]
      - [ 512., 390., 0., 0., 0., 1932., 0., 0., 0., 0., 0., 0., 0., 0.,
          0., 0., 6787., 0., 0., 0., 0., 2472., 0., 0., 0., 2354., 0.,
          0., 0., 2597., 0., 0., 0., 2496., 0., 0., 0., 2122., 0., 1322.,
          0., 0., 1361., 0., 1169., 0., 874., 663., 633., 483., 962.,
          801., 323., 571., 667., 576., 475., 671., 687., 282., 783.,
          289., 656., 419., 524., 523., 548., 1121., 433., 407., 673.,
          724., 444., 610., 548., 727., 660., 394., 683., 477., 651.,
          486., 612., 662., 511., 642., 453., 663., 430., 700., 372.,
          619., 699., 395., 669., 606., 741., 429., 690., 345., 74., 57.,
          7.70270288e-01 ]
      - [ 357., 0., 1283., 0., 0., 0., 0., 2360., 0., 0., 0., 0., 0., 0.,
          0., 0., 0., 6020., 0., 0., 0., 0., 0., 0., 0., 0., 0., 0., 0.,
          0., 0., 0., 0., 9564., 0., 0., 0., 0., 0., 0., 0., 0., 4547.,
          0., 0., 0., 0., 0., 3386., 0., 0., 0., 0., 3492., 0., 0., 0.,
          0., 2880., 0., 0., 0., 0., 2663., 0., 0., 0., 2103., 0., 0.,
          1869., 0., 0., 1652., 0., 1324., 630., 0., 1152., 508., 429.,
          732., 571., 573., 642., 668., 423., 751., 406., 663., 501.,
          657., 685., 418., 676., 478., 633., 453., 645., 406., 69.,
          218., 3.15942025e+00 ]
      - [ 430., 496., 675., 0., 782., 0., 0., 2157., 0., 0., 1489., 0.,
          1315., 0., 1176., 0., 1113., 587., 600., 694., 459., 660.,
          375., 766., 473., 535., 603., 342., 827., 365., 711., 458.,
          566., 557., 500., 806., 571., 668., 335., 686., 678., 519.,
          733., 319., 889., 297., 733., 479., 731., 446., 645., 614.,
          336., 736., 439., 569., 628., 625., 609., 515., 495., 433.,
          978., 0., 1056., 487., 500., 559., 546., 494., 812., 558.,
          394., 692., 528., 662., 765., 238., 780., 378., 735., 312.,
          924., 585., 353., 831., 437., 631., 527., 671., 385., 423.,
          836., 618., 626., 384., 789., 416., 523., 522., 117., 451.,
          3.85470080e+00 ]
      - [ 314., 601., 0., 1252., 0., 0., 0., 0., 2948., 0., 0., 0., 0.,
          0., 0., 0., 0., 4689., 0., 0., 0., 2420., 0., 0., 1856., 0.,
          0., 1829., 0., 0., 1701., 0., 0., 1415., 1002., 0., 756., 957.,
          465., 723., 442., 732., 631., 420., 568., 537., 621., 422.,
          807., 247., 650., 802., 412., 727., 367., 863., 257., 722.,
          821., 420., 505., 554., 549., 548., 505., 576., 658., 696.,
          592., 621., 491., 511., 597., 491., 448., 693., 731., 509.,
          475., 556., 778., 295., 818., 545., 526., 735., 441., 601.,
          534., 680., 373., 791., 677., 412., 655., 479., 699., 440.,
          609., 410., 124., 249., 2.00806451e+00 ]
      - [ 558., 541., 514., 522., 596., 542., 507., 724., 743., 238.,
          803., 438., 713., 429., 748., 282., 648., 823., 293., 792.,
          448., 615., 599., 650., 425., 558., 731., 513., 535., 444.,
          718., 502., 651., 604., 471., 795., 449., 386., 415., 954.,
          338., 818., 486., 663., 419., 507., 489., 471., 982., 436.,
          429., 807., 419., 416., 488., 963., 403., 516., 655., 586.,
          575., 455., 832., 442., 710., 353., 637., 630., 679., 739.,
          436., 634., 483., 679., 391., 674., 655., 495., 647., 469.,
          705., 422., 622., 717., 309., 696., 454., 586., 688., 0., 922.,
          0., 1040., 0., 1373., 0., 0., 1649., 0., 1194., 38., 89.,
          2.34210515e+00 ]
      - [ 534., 583., 503., 618., 451., 605., 0., 658., 669., 711., 696.,
          0., 887., 775., 817., 0., 887., 952., 0., 791., 0., 869., 904.,
          859., 0., 1146., 400., 390., 978., 246., 809., 536., 537.,
          741., 449., 516., 645., 459., 502., 768., 533., 509., 605.,
          362., 931., 0., 1183., 0., 1004., 439., 813., 358., 496., 876.,
          363., 708., 373., 861., 446., 369., 724., 357., 998., 443.,
          697., 313., 814., 588., 429., 725., 503., 621., 411., 740.,
          458., 595., 731., 384., 656., 538., 612., 527., 677., 646.,
          358., 756., 460., 319., 392., 1048., 0., 853., 990., 0., 0.,
          1267., 0., 1422., 0., 1028., 22., 113., 5.13636351e+00 ]
      - [ 496., 737., 381., 726., 293., 609., 377., 435., 891., 0., 0.,
          1526., 0., 1074., 1068., 0., 797., 725., 687., 548., 600.,
          483., 411., 761., 408., 689., 802., 403., 499., 390., 739.,
          582., 792., 525., 554., 605., 347., 630., 636., 529., 490.,
          667., 742., 478., 640., 567., 556., 429., 762., 374., 720.,
          573., 493., 541., 685., 356., 788., 426., 834., 452., 435.,
          474., 905., 398., 705., 326., 728., 772., 381., 679., 522.,
          592., 513., 526., 555., 546., 737., 507., 685., 431., 780.,
          323., 711., 694., 519., 577., 408., 789., 485., 660., 361.,
          664., 680., 417., 769., 310., 783., 501., 472., 552., 158.,
          148., 9.36708868e-01 ]
      - [ 514., 635., 438., 733., 422., 681., 411., 452., 949., 0.,
          1066., 404., 421., 431., 923., 372., 753., 791., 318., 733.,
          392., 722., 377., 741., 354., 740., 796., 361., 650., 325.,
          791., 556., 0., 742., 790., 842., 0., 778., 838., 0., 788.,
          707., 570., 483., 877., 624., 646., 516., 686., 365., 766.,
          618., 434., 660., 442., 660., 521., 641., 483., 544., 644.,
          369., 780., 392., 449., 546., 612., 634., 584., 551., 602.,
          573., 506., 965., 0., 979., 493., 528., 859., 401., 457., 456.,
          771., 882., 285., 584., 599., 792., 442., 444., 681., 617.,
          700., 418., 746., 376., 659., 452., 719., 380., 31., 62., 2. ]
      - [ 405., 520., 313., 845., 371., 885., 518., 0., 973., 0., 1336.,
          0., 0., 1469., 0., 1435., 0., 0., 1739., 0., 0., 0., 2038., 0.,
          0., 2064., 0., 0., 0., 0., 2252., 0., 0., 2240., 0., 0., 1646.,
          0., 1257., 0., 831., 752., 619., 497., 572., 0., 829., 968.,
          0., 1062., 668., 537., 497., 549., 779., 698., 388., 557.,
          747., 379., 788., 447., 360., 468., 514., 680., 0., 1110.,
          882., 677., 552., 512., 500., 780., 380., 698., 714., 396.,
          713., 301., 707., 307., 945., 586., 351., 708., 570., 564.,
          432., 714., 427., 674., 784., 449., 680., 399., 720., 454.,
          667., 355., 51., 75., 1.47058821e+00 ]
      - [ 545., 611., 503., 482., 408., 748., 429., 876., 673., 266.,
          826., 407., 713., 325., 659., 534., 712., 509., 648., 0., 728.,
          597., 496., 940., 553., 728., 0., 748., 669., 551., 526., 494.,
          566., 992., 500., 472., 518., 525., 788., 595., 474., 746.,
          510., 550., 530., 547., 607., 553., 757., 244., 721., 768.,
          455., 719., 278., 689., 624., 0., 704., 941., 792., 0., 694.,
          512., 858., 654., 650., 584., 478., 351., 424., 837., 590.,
          776., 399., 727., 591., 552., 572., 460., 682., 397., 640.,
          738., 305., 771., 0., 789., 0., 976., 0., 1351., 0., 0., 1624.,
          0., 1513., 0., 1183., 453., 38., 39., 1.02631581e+00 ]
      - [ 486., 190., 989., 648., 316., 485., 0., 949., 925., 0., 1355.,
          0., 645., 860., 0., 934., 962., 0., 832., 677., 564., 520.,
          447., 745., 548., 818., 482., 565., 653., 443., 674., 384.,
          543., 597., 811., 615., 344., 704., 349., 842., 486., 492.,
          524., 481., 929., 424., 426., 497., 492., 641., 683., 657.,
          620., 631., 0., 1249., 0., 671., 607., 580., 608., 648., 523.,
          530., 585., 528., 1035., 465., 414., 898., 309., 849., 276.,
          707., 571., 676., 631., 497., 673., 442., 636., 481., 623.,
          730., 454., 673., 419., 696., 463., 617., 498., 615., 673.,
          510., 376., 472., 649., 744., 582., 433., 65., 115.,
          1.76923072e+00 ]
      - [ 535., 666., 436., 670., 284., 843., 275., 626., 644., 401.,
          888., 453., 537., 646., 684., 0., 1111., 444., 430., 800.,
          441., 828., 356., 681., 300., 635., 874., 299., 568., 537.,
          739., 0., 749., 636., 714., 637., 778., 0., 902., 0., 1006.,
          988., 0., 1004., 0., 898., 901., 0., 838., 561., 1025., 495.,
          449., 815., 465., 419., 422., 883., 500., 471., 900., 442.,
          407., 474., 847., 400., 705., 712., 313., 669., 629., 392.,
          692., 669., 330., 774., 753., 333., 670., 512., 558., 417.,
          725., 652., 390., 677., 511., 795., 369., 750., 438., 717.,
          638., 493., 644., 454., 666., 291., 699., 506., 70., 73.,
          1.04285717e+00 ]
      - [ 555., 672., 257., 665., 600., 616., 513., 625., 633., 394.,
          418., 526., 838., 373., 863., 433., 495., 662., 529., 797.,
          455., 715., 254., 712., 0., 811., 0., 1275., 0., 1418., 0., 0.,
          1205., 1232., 0., 1177., 0., 0., 1181., 1051., 0., 949., 0.,
          950., 934., 0., 908., 681., 576., 463., 845., 354., 729., 671.,
          390., 787., 435., 414., 888., 451., 416., 493., 886., 327.,
          624., 592., 582., 580., 567., 514., 754., 545., 503., 731.,
          269., 808., 688., 475., 691., 425., 456., 689., 617., 702.,
          378., 679., 435., 781., 440., 677., 419., 654., 629., 541.,
          576., 492., 726., 250., 642., 572., 48., 43., 8.95833313e-01 ]
      - [ 551., 676., 378., 651., 464., 731., 396., 634., 589., 476.,
          691., 536., 603., 319., 478., 536., 929., 424., 764., 691.,
          343., 632., 605., 557., 557., 641., 710., 0., 1006., 476.,
          525., 452., 498., 1070., 0., 1043., 0., 1082., 456., 463.,
          496., 567., 667., 615., 598., 539., 475., 464., 952., 452.,
          470., 884., 377., 785., 393., 792., 406., 716., 338., 444.,
          992., 372., 700., 468., 406., 740., 705., 536., 587., 621.,
          513., 519., 495., 665., 559., 686., 567., 550., 478., 493.,
          680., 477., 684., 755., 279., 779., 0., 560., 665., 989., 0.,
          0., 1405., 0., 0., 1832., 0., 0., 0., 2380., 84., 93.,
          1.10714281e+00 ]
      - [ 515., 717., 410., 648., 423., 693., 368., 686., 689., 520.,
          612., 0., 669., 595., 536., 593., 669., 948., 0., 900., 736.,
          677., 0., 628., 611., 647., 612., 542., 617., 635., 678., 653.,
          569., 533., 536., 833., 354., 721., 392., 725., 415., 484.,
          514., 839., 554., 458., 732., 553., 690., 333., 587., 888.,
          320., 416., 510., 677., 772., 0., 771., 664., 489., 550.,
          1023., 434., 582., 451., 847., 589., 445., 768., 441., 606.,
          449., 712., 411., 593., 704., 388., 806., 393., 685., 288.,
          754., 631., 537., 554., 671., 0., 1051., 0., 0., 1282., 0., 0.,
          2007., 0., 0., 1769., 0., 1223., 54., 36., 6.66666687e-01 ]
      - [ 478., 536., 340., 774., 478., 854., 444., 680., 391., 376.,
          970., 0., 1189., 0., 710., 806., 0., 964., 0., 989., 0., 1125.,
          0., 1070., 0., 1105., 873., 722., 638., 655., 585., 0., 664.,
          677., 653., 728., 673., 688., 0., 604., 633., 664., 707., 705.,
          0., 794., 819., 0., 762., 787., 800., 0., 856., 695., 0., 871.,
          799., 729., 648., 537., 541., 657., 612., 0., 699., 758., 862.,
          0., 881., 689., 654., 552., 498., 471., 815., 477., 862., 353.,
          628., 478., 698., 453., 657., 587., 511., 700., 514., 553.,
          542., 711., 444., 634., 711., 496., 629., 404., 703., 386.,
          663., 472., 43., 37., 8.60465109e-01 ]
      - [ 532., 661., 484., 503., 384., 866., 364., 700., 728., 381.,
          381., 432., 943., 437., 428., 429., 1015., 479., 552., 649.,
          0., 822., 0., 962., 860., 756., 631., 644., 653., 0., 661.,
          623., 650., 762., 0., 811., 0., 1029., 0., 1146., 0., 1183.,
          0., 1432., 0., 0., 1727., 0., 0., 1862., 0., 0., 1411., 932.,
          0., 751., 796., 820., 0., 798., 742., 0., 766., 688., 772.,
          749., 0., 790., 709., 667., 554., 665., 656., 600., 0., 652.,
          1185., 0., 1154., 0., 685., 599., 694., 723., 542., 563., 533.,
          579., 499., 525., 497., 858., 742., 267., 710., 554., 740.,
          459., 669., 343., 25., 180., 7.19999981e+00 ]
      - [ 395., 337., 529., 1066., 417., 595., 354., 637., 898., 0.,
          992., 590., 400., 508., 528., 632., 644., 663., 533., 531.,
          474., 873., 0., 1019., 0., 0., 0., 0., 2790., 0., 0., 0.,
          1960., 0., 1465., 0., 0., 1769., 0., 0., 1575., 0., 1149., 0.,
          1126., 0., 982., 890., 599., 498., 746., 769., 368., 626.,
          587., 668., 378., 739., 520., 409., 694., 441., 814., 414.,
          686., 506., 612., 374., 790., 360., 727., 685., 318., 699.,
          368., 756., 708., 347., 655., 388., 490., 560., 723., 986., 0.,
          999., 519., 527., 484., 435., 486., 855., 748., 369., 869.,
          446., 648., 338., 802., 346., 85., 56., 6.58823550e-01 ]
      - [ 417., 582., 665., 522., 303., 767., 527., 579., 491., 584.,
          782., 0., 1147., 0., 0., 1523., 0., 1506., 0., 0., 1342., 843.,
          461., 690., 382., 746., 712., 431., 690., 468., 637., 445.,
          670., 656., 476., 661., 436., 727., 358., 648., 446., 584.,
          697., 436., 0., 1142., 0., 0., 1789., 0., 0., 1580., 0., 1192.,
          0., 1232., 0., 1069., 927., 0., 992., 0., 0., 1402., 0., 0.,
          1531., 0., 1367., 0., 1057., 1063., 0., 1057., 0., 977., 810.,
          0., 882., 703., 664., 0., 680., 1081., 0., 652., 583., 620.,
          513., 845., 640., 494., 687., 639., 576., 582., 520., 523.,
          705., 387., 25., 87., 3.48000002e+00 ]
      - [ 475., 528., 352., 817., 473., 513., 543., 585., 691., 0., 829.,
          1030., 0., 0., 1321., 0., 1584., 0., 0., 1448., 0., 1021.,
          630., 893., 495., 643., 710., 424., 700., 428., 665., 482.,
          666., 643., 416., 744., 410., 646., 459., 538., 310., 461.,
          585., 972., 0., 0., 1475., 0., 0., 0., 2143., 0., 0., 0., 0.,
          0., 0., 4033., 0., 0., 0., 0., 0., 3465., 0., 0., 0., 0.,
          2965., 0., 0., 0., 0., 2762., 0., 0., 0., 2364., 0., 0., 1932.,
          0., 0., 1953., 0., 0., 0., 1969., 0., 0., 0., 2160., 0., 1230.,
          908., 0., 1136., 408., 808., 359., 28., 76., 2.71428561e+00 ]
      - [ 550., 250., 765., 0., 0., 1638., 0., 0., 0., 0., 2743., 0., 0.,
          0., 0., 0., 0., 0., 4637., 0., 0., 0., 0., 0., 0., 3740., 0.,
          0., 0., 2776., 0., 0., 0., 0., 2724., 0., 0., 0., 2472., 0.,
          0., 1789., 0., 0., 1513., 0., 1317., 0., 0., 1335., 0., 1575.,
          0., 775., 884., 651., 261., 768., 788., 471., 657., 386., 725.,
          478., 664., 422., 648., 602., 543., 589., 475., 736., 476.,
          459., 537., 727., 666., 470., 716., 258., 724., 460., 628.,
          764., 534., 661., 321., 752., 410., 703., 422., 746., 675.,
          479., 669., 453., 660., 472., 566., 445., 73., 125.,
          1.71232879e+00 ]
      - [ 560., 619., 419., 633., 552., 680., 368., 590., 824., 239.,
          762., 531., 583., 558., 527., 341., 969., 633., 334., 428.,
          450., 1038., 0., 1051., 463., 438., 924., 428., 397., 390.,
          856., 399., 824., 790., 362., 665., 355., 748., 323., 678.,
          617., 641., 597., 608., 621., 304., 632., 551., 665., 523., 0.,
          810., 0., 1202., 0., 1095., 846., 829., 0., 851., 972., 0.,
          1010., 0., 1053., 0., 1032., 0., 1265., 0., 0., 1341., 0.,
          1257., 0., 1449., 0., 1223., 0., 929., 494., 426., 1095., 451.,
          505., 461., 809., 383., 699., 561., 614., 452., 886., 345.,
          745., 479., 626., 465., 580., 472., 76., 97., 1.27631581e+00 ]
      - [ 198., 444., 704., 0., 1281., 0., 1104., 713., 751., 451., 648.,
          537., 541., 478., 657., 433., 649., 659., 479., 723., 521.,
          553., 583., 628., 359., 769., 723., 331., 623., 361., 638.,
          673., 646., 557., 584., 699., 272., 746., 484., 702., 442.,
          663., 670., 527., 689., 263., 776., 527., 526., 603., 629.,
          680., 372., 451., 534., 578., 517., 710., 803., 0., 921., 0.,
          887., 905., 0., 965., 0., 1254., 0., 1329., 0., 0., 0., 1742.,
          0., 1753., 0., 0., 1520., 0., 0., 1418., 0., 1485., 0., 0.,
          1495., 0., 1468., 0., 981., 583., 849., 436., 653., 460., 727.,
          484., 671., 352., 76., 78., 1.02631581e+00 ]
      - [ 373., 236., 0., 1414., 0., 0., 0., 0., 2722., 0., 0., 0.,
          2650., 0., 0., 0., 0., 0., 3439., 0., 0., 0., 0., 0., 3159.,
          0., 0., 0., 2411., 0., 0., 0., 0., 2812., 0., 0., 0., 0., 0.,
          3390., 0., 0., 0., 2239., 0., 0., 1565., 0., 1404., 0., 1244.,
          0., 1172., 0., 984., 652., 715., 589., 716., 544., 655., 385.,
          720., 474., 545., 457., 719., 677., 503., 677., 400., 672.,
          421., 666., 456., 741., 699., 236., 647., 483., 873., 380.,
          728., 581., 390., 612., 497., 845., 411., 690., 461., 631.,
          695., 463., 673., 473., 673., 434., 637., 390., 92., 137.,
          1.48913038e+00 ]
      - [ 308., 798., 0., 1223., 0., 1009., 0., 1088., 787., 480., 692.,
          460., 611., 425., 748., 356., 656., 774., 403., 711., 395.,
          419., 489., 846., 347., 753., 667., 351., 740., 457., 412.,
          461., 926., 451., 799., 408., 685., 575., 582., 561., 549.,
          543., 615., 337., 796., 409., 514., 750., 0., 1004., 790.,
          640., 452., 627., 624., 689., 310., 693., 659., 522., 580.,
          561., 606., 484., 489., 619., 533., 894., 373., 738., 327.,
          634., 314., 979., 352., 665., 678., 354., 821., 285., 746.,
          504., 742., 593., 367., 756., 482., 688., 448., 663., 392.,
          759., 636., 386., 751., 424., 667., 266., 626., 642., 42., 46.,
          1.09523809e+00 ]
      - [ 499., 460., 680., 451., 696., 0., 1104., 0., 0., 0., 1927., 0.,
          0., 0., 2823., 0., 0., 0., 0., 0., 0., 3600., 0., 0., 0., 0.,
          0., 3690., 0., 0., 0., 0., 0., 0., 0., 4285., 0., 0., 0., 0.,
          0., 0., 4103., 0., 0., 0., 0., 2781., 0., 0., 2071., 0., 0.,
          1772., 0., 0., 1563., 0., 1476., 0., 0., 1298., 0., 1282., 0.,
          1236., 0., 1247., 0., 896., 464., 796., 439., 833., 406., 689.,
          654., 507., 635., 458., 704., 463., 662., 667., 447., 661.,
          411., 647., 497., 692., 374., 764., 652., 395., 749., 447.,
          684., 443., 678., 342., 61., 84., 1.37704921e+00 ]
      - [ 160., 532., 639., 750., 611., 425., 536., 420., 642., 723., 0.,
          1193., 0., 0., 0., 2299., 0., 0., 1545., 0., 1403., 0., 1013.,
          0., 1183., 0., 1372., 0., 0., 1698., 0., 0., 0., 2242., 0., 0.,
          0., 0., 2495., 0., 0., 0., 2800., 0., 0., 0., 0., 0., 3060.,
          0., 0., 0., 0., 2665., 0., 1557., 0., 0., 1448., 0., 1116.,
          947., 0., 895., 814., 0., 919., 966., 0., 910., 710., 601.,
          448., 724., 470., 648., 658., 419., 676., 503., 569., 562.,
          609., 637., 550., 689., 438., 683., 429., 658., 476., 635.,
          658., 504., 686., 413., 683., 455., 639., 392., 74., 103.,
          1.39189184e+00 ]
      - [ 553., 348., 653., 0., 867., 0., 1061., 955., 801., 0., 644.,
          714., 754., 0., 1248., 0., 0., 1591., 0., 0., 1781., 0., 0.,
          0., 0., 2440., 0., 0., 0., 0., 2782., 0., 0., 0., 2684., 0.,
          0., 0., 2259., 0., 0., 0., 2369., 0., 0., 0., 2386., 0., 0.,
          1628., 0., 0., 1511., 1029., 0., 804., 683., 494., 921., 404.,
          386., 715., 463., 592., 583., 606., 733., 518., 550., 557.,
          576., 591., 500., 692., 486., 693., 614., 400., 626., 391.,
          739., 584., 691., 651., 485., 655., 425., 707., 422., 703.,
          386., 688., 687., 462., 647., 482., 622., 484., 666., 378.,
          41., 45., 1.09756100e+00 ]
      - [ 526., 566., 422., 769., 460., 612., 366., 549., 1004., 0.,
          995., 553., 591., 0., 749., 0., 1061., 704., 729., 697., 0.,
          1310., 0., 710., 699., 613., 546., 440., 852., 378., 891.,
          233., 624., 917., 302., 761., 488., 704., 375., 621., 486.,
          737., 530., 513., 804., 266., 691., 478., 734., 519., 611.,
          644., 350., 678., 635., 606., 530., 608., 720., 233., 910.,
          427., 487., 508., 781., 433., 645., 709., 460., 587., 435.,
          767., 452., 699., 319., 754., 712., 419., 717., 428., 688.,
          412., 614., 784., 348., 754., 236., 882., 322., 715., 304.,
          839., 756., 0., 1116., 0., 0., 1317., 0., 1274., 102., 271.,
          2.65686274e+00 ]
      - [ 23., 979., 0., 1171., 527., 709., 0., 0., 1342., 0., 1617., 0.,
          0., 0., 1649., 0., 0., 1901., 0., 0., 0., 2124., 0., 1087.,
          675., 649., 682., 597., 625., 687., 739., 0., 684., 1103.,
          439., 470., 509., 602., 706., 0., 936., 0., 932., 932., 0.,
          880., 798., 0., 844., 775., 680., 655., 518., 460., 424.,
          1013., 320., 842., 564., 313., 875., 313., 799., 410., 394.,
          621., 737., 645., 575., 517., 412., 685., 315., 1020., 279.,
          838., 632., 412., 725., 436., 681., 347., 806., 661., 244.,
          790., 453., 702., 520., 617., 503., 636., 693., 444., 653.,
          491., 625., 367., 628., 517., 77., 184., 2.38961029e+00 ]
      - [ 381., 707., 0., 929., 0., 0., 0., 2115., 0., 0., 2180., 0., 0.,
          1559., 0., 0., 1494., 0., 1226., 0., 1000., 738., 742., 0.,
          751., 756., 811., 0., 935., 766., 0., 792., 857., 0., 991., 0.,
          1140., 959., 0., 791., 776., 0., 1359., 0., 1144., 458., 404.,
          396., 940., 254., 814., 777., 246., 785., 514., 524., 524.,
          646., 669., 506., 558., 551., 615., 370., 475., 479., 862.,
          765., 349., 813., 356., 603., 551., 709., 472., 630., 672.,
          410., 621., 628., 544., 494., 631., 820., 377., 711., 474.,
          618., 477., 682., 461., 632., 726., 413., 697., 460., 660.,
          459., 616., 403., 78., 199., 2.55128217e+00 ]
      - [ 513., 690., 278., 799., 442., 717., 444., 645., 569., 533.,
          491., 682., 372., 755., 605., 301., 670., 695., 344., 936.,
          297., 808., 254., 930., 316., 816., 482., 457., 836., 408.,
          380., 800., 413., 577., 604., 657., 565., 574., 497., 415.,
          798., 738., 352., 725., 392., 427., 774., 373., 694., 656.,
          586., 776., 459., 654., 456., 607., 440., 676., 654., 581.,
          588., 528., 644., 468., 715., 379., 731., 620., 480., 714.,
          398., 626., 515., 707., 381., 649., 704., 371., 737., 501.,
          686., 391., 593., 672., 478., 525., 710., 480., 607., 0., 723.,
          993., 0., 0., 1416., 0., 0., 1649., 0., 1436., 20., 125.,
          6.25000000e+00 ]
      - [ 523., 322., 491., 782., 0., 860., 0., 1129., 603., 607., 1060.,
          394., 487., 606., 669., 0., 675., 1223., 0., 600., 767., 752.,
          0., 771., 0., 948., 1178., 0., 944., 0., 939., 861., 0., 838.,
          770., 854., 0., 780., 674., 599., 488., 832., 728., 311., 564.,
          617., 533., 548., 783., 384., 702., 666., 399., 607., 442.,
          875., 397., 672., 547., 609., 578., 533., 644., 350., 665.,
          590., 646., 680., 425., 645., 504., 565., 418., 618., 474.,
          644., 624., 388., 757., 699., 619., 287., 612., 787., 462.,
          671., 591., 663., 335., 801., 414., 615., 735., 443., 706.,
          422., 583., 530., 696., 371., 168., 188., 1.11904764e+00 ]
      - [ 396., 768., 230., 954., 0., 608., 571., 915., 367., 860., 599.,
          383., 555., 543., 498., 501., 998., 368., 732., 395., 645.,
          623., 560., 660., 437., 620., 745., 496., 613., 389., 613.,
          541., 592., 654., 463., 765., 535., 593., 518., 656., 377.,
          756., 586., 485., 735., 264., 784., 468., 708., 312., 627.,
          659., 518., 761., 404., 650., 382., 868., 672., 291., 640.,
          589., 717., 455., 469., 659., 603., 594., 581., 618., 352.,
          707., 567., 615., 424., 671., 626., 466., 770., 360., 741.,
          503., 598., 680., 421., 603., 393., 734., 337., 728., 388.,
          921., 0., 887., 0., 1331., 0., 0., 1382., 804., 159., 104.,
          6.54088080e-01 ]
      - [ 518., 638., 373., 708., 270., 756., 449., 603., 586., 655.,
          554., 614., 672., 0., 1031., 319., 801., 642., 546., 571.,
          617., 673., 321., 839., 473., 578., 0., 1144., 0., 0., 0.,
          2131., 0., 1444., 0., 0., 0., 1684., 0., 1456., 0., 1042.,
          785., 493., 693., 591., 558., 544., 745., 423., 725., 520.,
          537., 536., 643., 618., 347., 600., 629., 514., 509., 462.,
          965., 0., 1147., 0., 1081., 726., 0., 926., 538., 763., 474.,
          678., 397., 700., 672., 431., 726., 424., 667., 446., 648.,
          744., 428., 633., 494., 610., 413., 742., 239., 642., 502.,
          570., 814., 0., 1020., 0., 904., 856., 27., 97.,
          3.59259248e+00 ]
      - [ 333., 402., 0., 0., 0., 0., 2776., 0., 0., 0., 0., 0., 0., 0.,
          0., 0., 0., 0., 0., 7586., 0., 0., 0., 0., 0., 0., 0., 0., 0.,
          0., 0., 0., 7592., 0., 0., 0., 0., 0., 0., 0., 0., 0., 0.,
          6162., 0., 0., 0., 0., 0., 0., 0., 4598., 0., 0., 0., 0.,
          3051., 0., 0., 0., 2192., 0., 1418., 0., 1172., 0., 889., 724.,
          600., 491., 722., 539., 407., 843., 407., 680., 684., 402.,
          692., 417., 671., 287., 740., 770., 461., 745., 421., 671.,
          446., 711., 402., 681., 690., 423., 705., 461., 676., 326.,
          790., 344., 24., 124., 5.16666651e+00 ]
      - [ 557., 627., 472., 570., 0., 724., 863., 698., 655., 0., 764.,
          707., 807., 0., 818., 712., 658., 620., 527., 471., 463., 500.,
          592., 758., 0., 790., 766., 704., 640., 592., 673., 0., 678.,
          618., 611., 570., 659., 635., 625., 606., 636., 524., 688.,
          610., 686., 0., 667., 625., 605., 553., 626., 576., 621., 611.,
          748., 0., 968., 0., 1003., 783., 837., 0., 740., 578., 557.,
          584., 558., 941., 482., 399., 434., 786., 446., 705., 521.,
          615., 799., 501., 677., 334., 708., 492., 687., 666., 453.,
          674., 439., 685., 453., 688., 409., 671., 608., 264., 626.,
          462., 489., 534., 856., 582., 28., 119., 4.25000000e+00 ]
      - [ 544., 645., 496., 670., 345., 757., 444., 377., 708., 719.,
          592., 471., 524., 669., 0., 808., 860., 0., 928., 777., 0.,
          954., 0., 1093., 0., 1156., 0., 1126., 0., 1116., 1003., 0.,
          947., 816., 0., 1185., 0., 635., 597., 744., 672., 724., 571.,
          449., 551., 489., 440., 466., 878., 473., 447., 822., 585.,
          596., 565., 530., 468., 847., 619., 380., 773., 427., 595.,
          530., 688., 489., 536., 806., 340., 643., 473., 751., 495.,
          566., 549., 593., 703., 415., 615., 534., 667., 468., 712.,
          616., 464., 615., 468., 693., 525., 596., 420., 549., 593., 0.,
          1062., 0., 1435., 0., 1165., 353., 46., 58., 1.26086962e+00 ]
      - [ 524., 638., 294., 802., 491., 563., 497., 499., 494., 598.,
          835., 0., 1108., 0., 1099., 0., 882., 741., 693., 494., 641.,
          600., 319., 918., 334., 611., 893., 293., 849., 312., 359.,
          463., 965., 612., 0., 670., 852., 0., 1109., 0., 1089., 960.,
          0., 847., 784., 0., 731., 714., 682., 542., 449., 822., 447.,
          740., 312., 702., 681., 716., 380., 740., 403., 381., 854.,
          372., 826., 403., 718., 707., 321., 646., 343., 745., 377.,
          735., 604., 636., 773., 419., 645., 570., 653., 440., 687.,
          639., 496., 640., 476., 642., 484., 623., 487., 367., 511.,
          692., 813., 0., 978., 0., 909., 795., 37., 76., 2.05405402e+00 ]
      - [ 279., 784., 583., 628., 469., 629., 536., 654., 627., 529.,
          639., 393., 700., 402., 716., 482., 593., 610., 472., 801.,
          325., 815., 351., 674., 365., 796., 727., 367., 687., 373.,
          699., 376., 739., 720., 352., 762., 469., 465., 552., 483.,
          528., 559., 652., 599., 575., 595., 633., 521., 497., 450.,
          680., 606., 679., 634., 630., 544., 591., 543., 793., 357.,
          659., 569., 546., 587., 353., 499., 529., 906., 0., 0., 1768.,
          0., 0., 1772., 440., 625., 644., 538., 570., 437., 788., 370.,
          748., 657., 392., 764., 409., 699., 413., 636., 365., 751.,
          755., 348., 605., 589., 498., 0., 742., 940., 46., 120.,
          2.60869575e+00 ]
      - [ 538., 341., 428., 504., 551., 702., 0., 1196., 0., 0., 0., 0.,
          0., 0., 3833., 0., 0., 0., 0., 0., 0., 0., 0., 5695., 0., 0.,
          0., 0., 0., 0., 0., 0., 4647., 0., 0., 0., 0., 0., 3508., 0.,
          0., 0., 0., 0., 3932., 0., 0., 0., 0., 0., 2841., 0., 0.,
          2067., 0., 1357., 0., 0., 1418., 0., 1071., 700., 806., 283.,
          850., 465., 691., 697., 418., 675., 444., 695., 472., 656.,
          454., 600., 757., 273., 715., 310., 656., 471., 820., 504.,
          513., 623., 611., 633., 0., 727., 697., 583., 554., 536., 961.,
          453., 622., 582., 703., 361., 33., 265., 8.03030300e+00 ]
      - [ 427., 354., 572., 571., 699., 718., 0., 919., 0., 0., 1741.,
          0., 0., 0., 0., 0., 0., 4298., 0., 0., 0., 0., 0., 0., 3628.,
          0., 0., 2043., 0., 0., 1569., 0., 0., 0., 2193., 0., 0., 2006.,
          0., 0., 1470., 0., 1145., 0., 1261., 0., 1004., 532., 980.,
          388., 728., 650., 491., 623., 451., 679., 454., 715., 648.,
          438., 692., 456., 667., 390., 587., 420., 749., 537., 672.,
          442., 526., 544., 616., 659., 0., 615., 702., 754., 853., 0.,
          857., 0., 987., 1174., 0., 1062., 0., 825., 837., 0., 872.,
          721., 609., 577., 557., 441., 833., 527., 702., 343., 23.,
          257., 1.11739130e+01 ]
      - [ 402., 424., 0., 996., 0., 0., 2011., 0., 0., 0., 0., 0., 3358.,
          0., 0., 0., 0., 0., 3410., 0., 0., 0., 0., 2753., 0., 0., 0.,
          2324., 0., 0., 1912., 0., 1360., 0., 1098., 0., 919., 0.,
          1002., 1017., 0., 992., 0., 820., 767., 718., 740., 0., 731.,
          738., 764., 0., 857., 882., 0., 1052., 0., 1241., 0., 0.,
          1452., 0., 1261., 399., 837., 506., 720., 454., 517., 803.,
          269., 843., 472., 547., 544., 640., 678., 287., 775., 408.,
          829., 0., 976., 476., 784., 637., 508., 600., 518., 577., 431.,
          713., 669., 476., 687., 479., 672., 456., 642., 370., 25.,
          172., 6.88000011e+00 ]
      - [ 373., 396., 545., 673., 557., 838., 453., 703., 649., 477.,
          606., 541., 687., 262., 704., 491., 684., 631., 563., 592.,
          462., 635., 569., 590., 410., 737., 531., 545., 736., 282.,
          839., 497., 512., 794., 410., 615., 412., 763., 344., 601.,
          730., 367., 636., 430., 793., 442., 520., 551., 606., 518.,
          503., 545., 712., 520., 509., 1030., 476., 636., 696., 276.,
          635., 506., 455., 873., 411., 689., 672., 372., 684., 573.,
          552., 589., 554., 550., 484., 679., 440., 565., 583., 599.,
          463., 501., 850., 502., 468., 706., 426., 564., 488., 560.,
          909., 314., 956., 381., 825., 471., 653., 463., 582., 448.,
          80., 102., 1.27499998e+00 ]
      - [ 505., 676., 407., 580., 449., 619., 0., 867., 893., 0., 850.,
          647., 870., 504., 594., 448., 654., 850., 432., 478., 339.,
          789., 428., 423., 549., 647., 742., 0., 920., 897., 652., 519.,
          534., 466., 490., 862., 476., 796., 362., 773., 362., 406.,
          848., 461., 594., 497., 840., 0., 526., 656., 1054., 528.,
          400., 862., 365., 412., 758., 456., 531., 548., 938., 447.,
          493., 445., 491., 495., 794., 673., 566., 742., 523., 509.,
          376., 693., 652., 534., 687., 390., 737., 437., 635., 470.,
          724., 579., 608., 704., 334., 726., 436., 435., 475., 622.,
          916., 0., 0., 0., 1708., 0., 1561., 554., 76., 42.,
          5.52631557e-01 ]
      - [ 427., 775., 0., 1045., 0., 708., 717., 692., 597., 685., 676.,
          0., 707., 750., 816., 0., 767., 782., 0., 869., 832., 771., 0.,
          785., 702., 615., 565., 507., 776., 349., 744., 350., 685.,
          680., 679., 514., 563., 537., 514., 803., 278., 612., 888.,
          279., 867., 301., 624., 303., 1015., 410., 710., 378., 733.,
          372., 434., 784., 394., 792., 767., 416., 449., 456., 833.,
          346., 716., 346., 770., 734., 598., 472., 474., 750., 464.,
          638., 527., 630., 717., 415., 656., 497., 662., 309., 666.,
          712., 484., 564., 598., 706., 386., 419., 790., 361., 712.,
          668., 518., 485., 830., 472., 691., 338., 45., 166.,
          3.68888879e+00 ]
      - [ 443., 448., 700., 812., 0., 978., 0., 1149., 0., 1146., 0., 0.,
          1224., 0., 1228., 0., 1057., 1014., 0., 1019., 0., 964., 939.,
          0., 999., 0., 1039., 0., 1010., 967., 0., 1062., 0., 1086., 0.,
          1190., 0., 1027., 0., 909., 940., 0., 978., 753., 613., 589.,
          590., 569., 524., 507., 475., 909., 427., 763., 407., 759.,
          389., 708., 668., 356., 697., 349., 701., 331., 690., 715.,
          343., 744., 354., 772., 428., 774., 405., 798., 401., 784.,
          409., 412., 884., 427., 397., 790., 716., 669., 331., 570.,
          494., 713., 442., 804., 448., 703., 652., 448., 694., 412.,
          649., 504., 668., 344., 13., 132., 1.01538458e+01 ]
      - [ 606., 612., 0., 713., 827., 0., 1017., 0., 1239., 0., 1391.,
          0., 0., 1375., 0., 0., 1402., 0., 1401., 0., 1291., 0., 0.,
          1314., 0., 1331., 0., 1199., 1029., 0., 1041., 0., 989., 0.,
          951., 915., 0., 837., 867., 0., 797., 806., 705., 0., 777.,
          608., 513., 536., 598., 527., 1002., 515., 454., 532., 474.,
          849., 390., 900., 389., 422., 820., 423., 802., 383., 424.,
          813., 388., 771., 395., 855., 439., 447., 503., 477., 501.,
          937., 467., 447., 935., 465., 508., 473., 473., 990., 501.,
          458., 390., 829., 374., 687., 596., 547., 697., 538., 637.,
          508., 694., 425., 704., 338., 14., 144., 1.02857141e+01 ]
      - [ 594., 417., 616., 747., 0., 918., 0., 1022., 0., 1112., 0.,
          1106., 985., 0., 1049., 0., 1082., 0., 1126., 0., 1247., 0.,
          0., 1441., 0., 1499., 0., 0., 1453., 0., 1381., 0., 0., 1486.,
          0., 1455., 0., 0., 1451., 0., 1106., 0., 913., 750., 695.,
          672., 626., 0., 1093., 505., 528., 439., 469., 923., 450.,
          847., 451., 434., 854., 433., 423., 404., 849., 386., 832.,
          413., 438., 909., 462., 463., 455., 984., 0., 925., 473., 427.,
          873., 455., 790., 363., 738., 378., 642., 892., 248., 787.,
          473., 638., 522., 592., 490., 667., 712., 389., 678., 443.,
          741., 441., 693., 337., 12., 151., 1.25833330e+01 ]
      - [ 553., 630., 360., 689., 416., 808., 299., 652., 692., 380.,
          748., 347., 700., 562., 758., 447., 689., 695., 421., 603.,
          476., 637., 557., 617., 279., 811., 420., 430., 593., 618.,
